401
200
201
6
-0.44992640409223994	-0.8403493287577469	-0.9712895167577414	0.9729865004499805	0.689262566433424	0.7358131524744121	0.026480557910835117	-0.9578476926395458	0.2966830003530517	-0.09606183176468189	0.10326541142283895	-0.43732158056096737	0.5687890512970429	-0.31255971083392464	-0.10054657338636105	0.4658461520565945	0.7662459639417629	-0.07697981727703819	-0.9997071238216756	-0.26134203036652515	0.7858656267155716	-0.6786218810827741	0.701189287520436	-0.42311842069688643	0.8695247376147862	-0.5139316777434492	-0.10753718896738837	0.008732987947335838	-0.08251221192935039	-0.28552018259105105	-0.29798651073717547	-0.8119462929160524	0.7310847139916677	0.8212710991287939	0.17417013482698787	-0.2707547209522216	-0.9058148984014628	0.4993812116229498	0.3577012231823582	0.4090200371420692	-0.5665357115716372	0.3735356930196392	0.05677379085481991	-0.2373115296445637	0.4586158368952568	-0.1679321536693167	-0.44409114517672627	0.9636813177432509	-0.8424347236391833	-0.3542574519273811	-0.9719464434124071	0.935877540904979	0.7709891178422721	-0.7544090571922865	0.5793907670631145	0.4021513183970439	-0.5246553934206749	-0.8153921626527305	0.5678550619805239	0.010828637681338809	0.624995152393267	0.1644672109990435	-0.7824119680804447	-0.46119312052944716	0.19244689930867545	-0.8141345897920592	0.6711401611967455	0.7260291679793289	0.9795747982492921	-0.44112079525891357	0.5205734965730723	-0.29585533612768705	-0.9223407429514718	-0.24480147212602393	0.933799297178821	-0.299755883749674	-0.5697781360807292	0.8692185738887748	0.026911193601914338	-0.4316638713355892	0.9182461596748176	-0.10453671957370692	-0.1616226711438956	-1.1372747787071513	0.6234049124693805	-0.996357871089928	0.27862177632586793	-0.754036656262043	0.05248816193634926	-0.8820727459732932	0.9394943284559583	0.009176439061198747	0.15638482693444247	-0.031938037564332035	0.03057252326744849	-0.8520259363996153	0.9292934686920608	-0.7994099507973973	0.09828453752990568	0.6076957480605586	0.8366312972381255	-0.7635878961833752	-0.6276253213845542	0.7129482408677825	0.7532483107286566	-0.6350423687900247	-0.24662457107663066	0.4721083820236622	0.7018272215671244	-1.1388701958302738	-0.06103143939646168	-0.33140226636804826	-0.9587396582366154	0.9576590347393644	0.42595817808985265	0.44467692488756916	0.03560231218759496	-0.5530829527158493	-0.4324234335304814	-0.5912261933410385	-0.6112804482090679	-0.15952074814416997	0.9665363874451205	-0.44684617850487063	-0.9532567843109901	-0.23787583474568508	-0.807093708834052	0.5679817265374293	-1.010744055593863	-0.00853189694725599	0.7985028016607849	0.8016048971225764	-0.6569571942390453	0.42574243497822994	-0.7183160270070352	-0.6272366766207143	0.0350207083497269	0.04383227831086061	-0.8042885286014295	0.02127908978888888	0.8709219539366644	0.7470456243467652	-0.9980059650769332	0.4153240350502434	-0.3605375407004581	-0.7067125932075867	-0.02776201252102202	-0.3821203244531981	-0.8801467062783108	-0.6763999496623482	0.755135148870264	1.0675435562711288	-0.8105073567344915	-0.13509373325996937	-0.1708572128835676	0.3386633935860004	0.41521095904013006	0.20272831791129906	0.4918017725668606	-0.9777289411792887	0.9596582606632726	0.8480147008655851	-0.9106407667214333	-0.7486705109140386	-0.4515629520787769	0.8385002761400749	0.9077300934773799	-0.47612112486011976	-0.4058933052479311	0.07221386361836359	-0.7434857737019619	-0.09695031742474992	0.9840798906214216	0.18973347490668568	-0.7714136582630986	0.18980428543028205	0.4853314193488396	-0.3313962668061362	0.2162362826582828	0.15116638274143865	-0.8307044508774278	1.15138154050064	-0.2942667275796188	-0.41017240047998416	0.9214569703090147	0.3872532670924417	-0.9267191086066513	-0.6057566663038382	-0.4997611643421414	-0.739354521060202	0.3168638700509826	0.6993360320716324	-0.013085055710804516	-0.9092398634552926	-0.1795753365692294	0.3528472271621538	-0.490128344693382	-0.788636222748607	-0.07277313372722685	-0.6544440026172262	
0.6882098616711945	0.7875729396506723	-0.6493918645428396	-0.9531530682057838	-0.6051024817019968	-0.5562240963413954	-0.584780315163576	-0.6285414951579376	0.9432781603019056	-0.8936614577322619	0.5065515611333022	-0.49474887925417277	0.9079260130362781	0.7216208087744325	-0.015621768121903079	-0.47049682964682926	-0.29569201043563176	-0.9141647185585613	0.5305396330291359	0.6381196342087465	0.799902987969507	0.353442710189217	-0.10207018264010759	-0.931879178757274	-0.6579209056562247	0.2045076808603723	0.7887984983223655	0.6479845409540548	-0.6353456966210476	0.2045232956902514	-0.33801330293641474	0.9553573536388549	-0.0364164879658484	0.8843531324022496	0.6534833839745349	0.4760419526499369	-0.12677200180098014	0.37458035913855614	-0.0080433927940613	0.8690578615403826	-0.2718178725074121	-0.9523057684381557	-0.6993229208436142	-0.5320364365948083	-0.03835527031423247	-0.4468152875676903	0.9995182733154195	0.4865185488832082	-0.23015987905846602	-0.1252435460364949	-0.344516841297865	-0.9528454434063907	0.8630089367713087	0.5955145845453638	-0.4225273948121029	0.11361606802462298	0.8270039588785085	0.42611446842412093	-0.7892237134097126	0.6845201034041406	0.8355426656330138	0.23250919750661958	0.9590329637255166	0.19247698965295412	-0.8183171462759506	-0.7059313688540048	0.9461723035270382	0.9538033108611514	-0.3618954302988815	0.32948417031093813	0.9281158067509379	-0.2732501516404058	0.009296075668557835	-0.052984909384026224	0.07378063134497514	0.9615570076724604	-0.5952427703723011	0.6072714986098	-0.34280479609074366	0.16354206654944603	0.7408504580591799	0.9308711520984059	0.837301295961782	-0.05918841510048156	-0.23005587175111342	-0.7600537007636023	0.6492831684997322	-0.22891533713716017	-0.46099163779971497	0.5916190779785477	0.09102923572210475	-0.7024981390472804	-0.4041596649658823	0.24320308231453414	0.7605985065880971	0.05118664545360163	0.4896106068214594	0.48303052418695036	0.8853282415707668	-0.10128491640193049	0.1534378029206147	-0.9325559768719294	-0.21951343662475709	0.22554236882535994	-0.3897845225472396	0.12363390979292666	-0.2148626402067333	-0.10817712543457092	-0.891071129909103	0.30964120673876105	0.5451527012835093	0.3349536502626391	0.27721717357174014	0.2669878587708032	0.1480717014403905	0.8435593039503673	-0.8330498638097803	-0.04196347547673507	-0.9382286616065869	-0.00947059698181496	-0.8268943716741495	0.34932237027711244	0.08868065308564987	0.4881077658893871	-0.27775108026625084	-0.9162597431559736	0.619533843628032	0.3159254912639069	0.3554305371540938	0.2786109905528844	0.35542586516604935	0.8732593046365562	0.371335464578171	0.39329194651900323	0.3641971620213682	-0.8803129277714412	-0.4509681271617636	-0.7708640442864187	-0.15305853878807074	-0.8062954590193319	-0.3643173597284568	-0.4437543149103005	-0.6873039060611223	-0.16324427180180745	-0.7369002319890583	0.6056089675932201	0.9941386803036181	-0.8994779283516217	0.7480361998479632	-0.2781577308369223	-0.7156185854891277	-0.7217953478196915	-0.1653742702732537	0.8409104510737415	-0.26528181417782126	0.77592544692896	0.8533977422122105	0.13883060214653953	0.7254465932342085	-0.27173671906310104	-1.9200738256763827E-4	0.19150904609533348	-0.6933481793016849	0.5623315544626399	0.47624333837280997	0.29250126058755055	-0.09689465529354435	-0.5723051074929475	-0.9050263542100236	0.19462452550547993	-0.41280330049999203	-0.5651871726474549	0.6055394173257096	-0.5270055634756743	0.4460827257444713	-0.017410886732718733	-0.5114203603659542	0.9511963836807573	0.20400384969662588	0.10599576181551207	-0.7508802499844722	0.18894453430921843	0.7079823525782831	-0.26236808712292037	0.34585562062161657	-0.10127965169400222	0.14488442655053246	-0.947532060985629	-0.191015394364074	0.3405245422820613	0.9300917530176342	0.652915672907808	0.3276506257598679	0.23801593941335164	-0.9072046585550992	0.2517567962461802	0.12908572498096316	-0.4340478551692799	0.6801890978343381	0.7233518031942885	
-0.8079458120592129	-0.34433541035115733	0.23045816556984358	-0.08207771116015422	-0.4317227854519292	-0.32279831465965153	-0.20665864056589248	0.4309875297774903	-0.11922504469580018	0.6740879884465463	0.6213917509425673	-0.0049823083143218354	-0.044049707824808146	-0.4134949917361579	0.6159693215646551	0.6586631982988788	-0.941449855786892	-0.3396669373423653	0.23801596201345784	0.9346861297535614	0.7695428789860542	-0.17227087761767865	0.4058819268217845	0.17196976598808236	-0.6576778373516542	0.2841236729988484	0.3177170297647295	-0.39372484251365364	-0.16980760102027817	0.960660319997187	0.18503636142198432	-0.07305302657739589	-0.8143838606159804	-1.029661684728409	-0.7293342799103056	0.2872250817778665	-0.6161420007608057	-0.9686008696036702	0.09577145016011027	-0.17908216638364963	0.8857167357461191	0.051609558161397825	0.1781530876968923	-0.9411357106030639	0.6454430864446263	-0.903464064852269	-0.7646968846993395	0.24971290481020858	-0.9111917343344201	-0.9750684546719153	0.4173187748594079	-0.38821507388446724	-0.3966957116549671	-0.8525577083289623	-0.9850099584219102	0.040370043156498024	0.2968412225894131	-0.19592150015079818	-0.8839472017720195	0.3308931156685984	-0.8848814155797772	0.9095080132698631	-0.22708613329774227	0.5833275264966586	-0.06405543122491131	-0.3402909653229791	-0.41862917666116306	0.7292223410877805	0.01231598467026665	0.9023820331321084	1.0137507342540089	0.3362079997323005	0.31469846976067156	-0.6414816752320787	-0.5475099487963219	-0.9188676606919718	0.19081950091826144	-0.2695420888725747	0.3907261873970899	-0.9644321274822825	0.3871740010016704	0.45280834778102114	0.8637058146362391	-0.5910828903836857	-0.4692821752330704	-0.4362937008171645	-0.9334181014967325	0.460688831948833	-0.7477891250748819	0.2092425288925843	0.14183291229258352	0.5163348738603251	0.2836344029482176	-0.7983680728108696	-0.29005207166981695	0.6784149382535282	0.7248928276778975	-1.079879839438328	0.8735554481967478	0.08041025522752013	-0.9372931712028535	0.9632126613404911	-0.9650092308383483	-0.7307374119606085	0.5111239711338901	0.40973157014458966	-0.16663251380518654	0.043616974582958	-0.7223490149690783	-0.012613303214567785	0.9523819184418363	-0.43710158721722525	-0.4152071498566044	-0.33778200460258323	0.16038323465050744	0.7440742262566526	0.21092804383410368	-0.07043931483009876	-0.635455230638604	0.8569938606630554	-0.3093120244618404	-0.21691676579184457	-0.36547189932336377	0.5331640941930811	0.7944883536533184	0.4830769289535353	-0.7285216394296912	0.9749068787864908	-0.8962887341270247	-0.5910402199813298	-0.6346753535201708	-0.04757745031133431	0.4457266205825085	-0.634886675677108	-0.0842098546705914	-0.647119478034311	0.07720411130518665	0.7807465035171819	0.8608179090742988	0.404144794909283	0.5513140347204399	0.34858420425463144	0.46974750197003373	-0.7537113634893484	-0.6888639784139524	0.017906888010501498	0.43699344784758243	-0.00920885499309649	0.4032653343148653	-0.32317859044070796	0.6784475523761957	-0.660700964826351	0.18141523012013583	-0.9404091387192336	-0.31271509171172307	-0.9995457340096796	0.8385056693871171	0.5694061544890193	0.24507151143279238	-0.3236417538462724	0.13558002744210715	0.06838171027100795	0.9026051230691825	-0.8296645621210617	-0.03288579653556537	-0.4656879503567955	0.02042080972478358	-0.0703012075123814	0.041909794373126225	0.15581159060676597	-0.14638831495787408	1.730433954485264	-0.3990083036537532	0.9259999491066911	0.33128423932113343	-0.5488644568278727	0.901193159809372	0.44716014085939293	-0.5433718221240978	-0.7018527027617275	-0.37637153037088544	-5.724235916451387E-4	0.7096797205889024	-0.1881846981129574	-0.6930475392964259	-0.002413198305941542	0.1880334564121872	-0.3362234940008433	0.11156729444547518	0.6129482558685028	-0.49540808782241097	-0.3293371748089203	0.4284483948705749	-0.43752690827347757	0.4912831041070753	0.7790668907623273	0.9057133883600855	-0.3363896600006281	-1.0335513476269498	-0.11896026694805571	
-0.6914380635293289	-0.436951467804023	-0.2965685695276261	-0.8855781982194734	0.4560991130083747	0.11327920118954589	-0.4098153204487611	0.8070537174165896	-0.9885809736879828	-0.7553714790418112	0.26669417766218556	-0.02187934042682252	0.49403218150564787	-0.3784459133373099	-0.5367706535387617	0.6536916260676363	-0.12045702991901473	-0.26824846601564073	-0.4626074908612778	-0.6433023519414803	-0.5753351040505721	0.7294984678400706	-0.5433610061021925	0.7071298412167346	-0.6439338807197706	-0.9265605956093647	0.11795031852210737	0.0666741861608395	0.6048851219878468	-0.3748492580850958	-0.6675214838490136	-0.9451469534650156	-0.46841937815213663	0.8023161093187217	-0.688751923232141	-0.3680950032117981	-0.12301466553784397	-0.8824002147618146	-0.5628647315292906	-0.3994854325365779	-0.843334979903928	0.7777969230573074	0.4024586312622116	0.5654262874725049	-0.39170954911710637	-0.5670961266455449	0.9321153034510717	-0.6117549274779657	-0.1840144137693977	-0.5120370289151434	0.6639662959325355	-0.6541257488297967	0.9846761109764802	-0.8675039966811572	0.02626343677236676	-0.7458062158244462	0.45062050381646696	-0.805201764059497	0.4444437140005518	-0.06298950285935938	-0.5861989616244214	0.798478998424973	0.07936511267633334	-0.631617554992046	0.8741830026538887	0.6739690542912681	0.7301445035740802	0.8225831877588173	-0.70994944817216	0.585907604843998	-0.009349974694612895	-0.3904683006095251	0.9136583095992414	-0.501947802618513	0.7810105443607974	-0.7727977925044143	-0.29087913340930605	0.5128147719563666	0.7078627788773671	-0.6692642486260547	-0.45014724765879377	-0.6305855653202461	0.2733834416508054	-0.5577498968819232	-0.7248301326095201	-0.9350350174437033	-0.11688276186397155	-0.6195505043021946	-0.3357741709921453	0.7758210173904786	0.4801927605833688	0.4669103951613822	-0.10053027258213737	-0.8137593606204462	0.11040780929298108	0.736889160374766	0.610480323985377	-0.4198030693163425	-0.11702725406020371	-0.7947012836309564	0.5002679070866857	-0.821775124391514	-0.1170695080216421	0.1950210551954742	-0.887443315376169	-0.011226000737942705	-0.44284052161906484	0.4909492881909579	0.533091799628754	0.8656505254769388	-0.4398055027830119	-0.2790094737072766	0.1668519935736982	-0.19764783160628546	-0.7636178919130152	0.21158824057407133	0.1609756045554775	0.4097213593678097	0.6617372971402019	0.37165998814732737	-0.36700428663629536	0.2941395089459857	0.08759341809038154	-0.9423826783026426	0.5606431896499443	-0.4540572266352631	-0.5881151158269853	0.18944573710274684	0.5437158143375014	0.2582891349420991	0.0017003369197685463	0.8005241991645667	0.3114856187733213	0.49105880961023723	0.15368477793848284	0.7828731928206202	-0.2651410608268305	-0.3110222774825134	0.3005800303576068	0.7366721452265454	-0.3028639181437018	0.027380667882777335	0.350431852456931	-0.24444934635250876	-0.5102733417992668	-0.4285198560898976	-0.28675800196727586	0.12404875894665608	0.6053764443090016	-0.2508924345081378	0.1925287727503739	0.029276408856341286	-0.7727732118893396	-0.019045587292238018	-0.23011886772716872	0.9234626095736213	0.611518875759971	-0.8484605686661505	0.9105673589538867	-0.7504578936641646	0.45707396961021407	-0.19662991405909616	-0.18532869921820186	-0.6772428797199921	-0.48797812090030945	0.3986139213926255	0.3852476691514168	-0.2394135868721927	0.1346577799129067	0.12714858547692395	0.8954141740459444	-0.20516148449674748	0.5002567719425363	0.24590479953622119	0.8768215357981358	-0.7800509935495524	-0.6319691661042224	0.9405114123661011	0.24000871190666825	-0.9870527198139784	-0.9252492731488929	-0.7615355067192422	0.1841650309493604	-0.7161670530832331	0.5135221292870127	0.06597853519250801	0.3160215451662069	0.3312102949646327	0.48134044968897916	-0.38515574460825647	-0.9145274883554074	-0.20466438461569325	0.48976799698294055	-0.5587039689108636	0.1734954358251273	-0.773926321787189	0.32307215728915495	-0.9491345490973959	-0.008157958603786774	0.2703624787870191	
-0.1882663342242972	0.5442465031432412	0.30363516274150415	-0.28204136886005715	0.007929796881313143	-0.030722898502949066	-0.5690108915510254	-0.3303375500676984	0.8300512522484096	0.7672449404362723	-0.30286957781316187	0.041342321903182974	0.14724312409808388	-0.4457334992120375	0.42210608851360903	0.9236042576030657	-0.745228797546761	-0.1457473942469141	-0.4602731865170708	-0.03623950179638896	-0.5849965388582652	0.15006801348137921	0.4961832720522085	0.523775655381946	-0.355209067853201	-0.7473677196810656	-0.91089091528837	0.5320432204139961	0.7234070265903194	-0.9532012961447585	-0.8346596903125376	0.09313094221848478	-0.14322138604961224	0.1948112857809865	0.6973071472785974	-0.9107184103037924	-0.47451774800419166	-0.1460165994566001	0.5991392464847753	0.12885334387692363	0.24382839151970512	0.5190872638121182	-0.4903080853023686	0.1605094495842393	-0.2670190039272302	-0.4759143056137265	-0.7157891465065952	0.8498912195395868	-0.6929408686817443	-0.8617208235781484	-0.987832866547147	-0.6263555120290428	-0.8243790862934595	0.4787424079067488	-0.6843664092384522	-0.25729014769447134	-0.8787146743159332	-0.9071256556541275	-0.8195847198155173	0.7835849496207934	-0.2969268464787401	0.4826428253576468	-0.7310256848947042	0.2023300526693723	0.6677223715031599	0.8987396730431105	-0.45957774507375393	0.8327666814429521	-0.09457383345934112	-0.8353914277659504	0.45463218415309686	-0.7360297533051547	-0.4975773260535799	0.46342368067014555	0.6697857361486441	-0.9935411154025853	0.9900387697227169	0.37176428394062605	0.9941373199789929	-0.09308230314849537	-0.34819929768596686	0.17953303402428422	-0.3116048084524517	-0.6386245870276055	0.5572912106210376	0.7365980098047205	0.801794990519819	-0.9291889240796011	-0.09086170166972497	0.3489657815187524	0.031310376235397896	-0.7681448497251333	0.5288686171400964	0.396805405614119	0.8468661381560781	-0.1678109707244491	0.15149709455009686	0.35475660470830334	0.24347967385301875	-0.09493346089599433	-0.9266553125176765	0.9507752981676338	0.7985882705789858	-0.06446135321302075	-0.7948469022669675	0.529940428666824	0.9760643657744186	0.6786067239190458	0.40051430464419646	0.3533940555546452	-0.7820813423026386	0.14971799642763814	-0.011499308721522368	0.09540483563073292	-0.2196892436503717	0.9624596720697233	0.16418019712920234	-0.28872507106651246	-0.16727035321423273	-0.9212705111773801	0.9641927550035623	-0.17260234452462286	0.5858298969202799	-0.39910276559766755	-0.05184065426713999	0.3895317437275717	0.7600310679773339	0.01309400468865754	0.8263533191785951	-0.08439738005658524	-0.566691866807388	-0.42700755468508284	0.1531257631300538	-0.5587549732267648	-0.8529681336622326	0.6533010232345179	-0.06494457327784932	-0.36654962201256946	0.9022702616853386	-0.6921664442039491	0.547629317437224	-0.4815641492399859	-0.7279681973805602	-0.45852223943157727	0.773194995634299	-0.20320987034124377	-0.7661550903220102	-0.5386944802982272	-0.2577008184587049	-0.4307692163294768	-0.4753079845396804	-0.1957638970803727	-0.019798080782785776	0.5204466580727141	0.3105481320627399	-0.7710543978593949	-0.44640632663674246	-0.7295388219583332	-0.6048311771069144	-0.3827554504697097	0.8192179513932375	0.4586618149200844	0.7312178657528151	0.37025553537533457	0.08833510143614719	0.07510655863653021	0.5822295038124491	0.5560160084529477	0.18244636047105933	-0.48976083797671716	-0.5938134657748337	0.18354874720511127	-0.5476371678974435	0.11341447173111652	0.711068407552334	-0.5119427481736384	-0.15951268953551836	-0.469128415082576	0.7513214877269278	0.03903897319475521	0.3031083433868881	-0.8997225800462363	0.62003343847057	-0.30630870535330096	0.4542940811971106	0.4776388453841717	0.7371205697400787	0.839848644070108	-0.26078736941072506	-0.13933434689074664	0.7631617050705094	-0.07343287136750397	-0.18282374041238733	-0.5113242694480037	0.6204844311760146	-0.5452226876751168	0.7626590356243312	0.08001869238932792	0.3907953025627857	0.7060461784490774	
0.9480737121470363	0.9946321701457688	0.23696915453131215	0.9345223436619378	0.2009557857607275	-0.03163305500840694	0.4275759031278782	0.34728992881863785	-0.6079087618172582	0.70998564173042	-0.8124148594662652	0.7163882620390327	0.039341791805496705	-0.20487462902148695	-0.8448238979456905	0.9653007822086775	-0.5700278322007809	0.525341480248073	-0.40563863390937105	0.8559222915965532	0.832641020053175	0.26636235921387424	0.7739923771285923	-0.4939647596663227	-0.5636717354747899	0.05323529728873954	-0.23220888978356927	0.3691194496148447	0.4253801332506447	-0.7055411834100576	0.9793414955287256	-0.3210645098790402	0.3866414765092382	0.9051544909276567	-0.41383881459958943	0.34051973551749937	-0.7550519933811771	-0.5150141245300758	0.7387819340264369	-0.036776856820932985	-0.5183067941022418	0.4948253900885383	-0.47823654441259134	-0.793160535160622	-0.3727569978459282	-0.6091853749906159	0.8752738904158477	-0.42181799039051276	-0.2998099306484014	0.35361879445762684	-0.6035484957707332	-0.04607829885448603	0.6111752728923867	-6.495050220672676E-4	0.07590107859366967	0.10009382801958573	-0.1700584308504557	0.5445942554266873	-0.26426660507950916	-0.5274427389333739	0.9764205844843785	0.013614803657641101	-0.5259941298053608	-0.7143688664181578	-0.5191052653422437	-0.6695405500402174	0.836296113727102	-0.9641049895161405	-0.8390686954821417	0.725908864155952	0.6450810342561453	0.26556185542088206	0.32046978641666984	0.6037979063168799	-0.6652706307306536	0.7085200114590717	-0.6193240499428225	-0.626103955091772	-0.2377036683639739	-0.4582733513618466	0.4248818978919138	0.6746328705332203	0.4843242111740687	0.37320872738714883	0.2365881690855067	0.10309248355707425	-0.2771188329223632	0.26487528144612876	-0.7962700275914361	0.9477969312802071	0.8497829957633185	0.8188857033665453	0.05520569400680916	0.5763317195211067	-0.26182187094599146	0.103998218560532	-0.02727676925442592	-0.6416179533552986	0.7103585345005816	-0.47134665330648357	-0.14602300417564626	-0.9688150648294148	-0.648718495718294	0.6774866207814727	0.5357918644769898	0.8470786998907509	-0.2248184870581847	-0.09484271150940685	-0.846434570981269	-0.23517601876802213	-0.3986549324183132	0.07213375026074986	0.3689775115975592	-0.6115459325021473	0.6530792030013371	-0.121058085891331	0.8168656358091035	0.19385949363994426	0.7568136982636007	0.13892249925173464	-0.5050691459965354	-0.6297489564141734	0.4310553868567181	-0.6182318759636346	0.8340402080871839	0.26530233595701547	0.8156359586305163	-0.3618267684480161	0.5629926212444837	-0.24213842933807725	0.09042927613482296	-0.937054056925716	0.324163071281363	-0.8661070938826464	-0.9778647795254752	-0.17401701631339941	0.45567932109615544	-0.9609054268267501	-1.1822762369958784	-0.3929255050365422	0.7113575648133618	-0.5972526960017468	-0.4275443657291161	0.7252469081997318	-0.48658446094916336	-0.40908822643901827	-0.7617028834091447	-0.5669951327743722	0.32991103889238027	-0.1890870308691362	0.8310757174366585	0.502625948958746	0.7139539552777289	-0.5797769609662085	-0.5032523291827151	-0.9641589573310976	0.1802480780074691	0.08979036263896752	0.11554317183865138	-0.9470430906303627	0.09411025285855447	-0.7929457107115253	-0.6759798057557251	0.8689676139502336	0.9199474913731894	-0.15493061656886867	0.4736956744293407	0.04375768921798132	-0.561041426761404	-0.5144484084583726	0.2772407518425453	-0.5935514321213202	0.6691189983687835	-0.6738862747341746	0.5914051908370285	-0.5994053506767505	-0.5319223358747871	0.9245773191926681	-0.32584830129892944	0.48596285287046287	-0.9130366699688702	0.41759087696261854	0.9783759435415458	0.20516161523426876	-0.21944404051089073	-0.18663420293407815	-0.024225648701009506	0.9008036849641922	-0.8273669472865651	0.2876782779331715	0.7494078902731266	0.16612443926319095	0.8503259410809176	0.1342657819640781	0.3886540489033793	0.2892158147817741	0.06680078517173463	-0.8750019033897182	-0.6557327694222477	-0.2606665520872488	
0.2588159649660179	-0.19916539607834535	0.1175275358590046	-0.5503231848266603	-0.30463346725489426	0.38766661492549276	0.1995305308191925	0.9219091906271286	-0.3056417360193245	-0.39466783662969085	0.6402601302769356	-0.09694864905243825	-0.05384535025016514	-0.7793958165808059	-0.8793869824245684	0.2738479583495184	-0.22434975621216133	0.5645774576463091	0.39653247352771803	0.07460132154094845	-0.327904952146822	0.5091086363209711	-0.22032107128916076	-0.6613180763586577	0.5441489627014308	0.32373791229214216	0.5120024305140761	-0.8244362561278861	-0.18667708307002195	-0.13818068117825244	0.7498507205864383	-0.894121082008671	-0.6431071720993655	0.638685655468043	-0.47574092708626503	0.22071074786628128	0.5735054201653095	0.1375737676083661	-0.805817089149922	-0.30748898498887867	-0.9003075451298787	-0.45692666725924713	-0.4628640252573894	-0.16347272103727406	0.5049395895587947	-0.8558081461600012	-0.22168417342729188	0.4534755727093084	-0.19897096122960772	-0.3487477938659012	0.14644917879812674	-0.8423641709367613	-0.5913165288513602	0.07519108974053214	0.39294162363904955	-0.3905084160947488	0.7137389970531063	-0.7419601592866854	-0.27288455353573726	0.9287963955966185	-0.007040372037672594	-0.2544498659193022	0.39913058043203076	-0.2854290614246011	-0.020767710955146363	-0.7533449830188902	-0.5297313837074659	-0.5144721476867897	0.4139728779666088	0.5837965030993081	0.6771243363619047	-0.6245811734710892	-0.29757815696364165	-0.008524678458714451	0.7391497045923453	-0.2769561000436022	0.34014780443453313	-0.8394135174629614	0.7849047783062537	0.217559748914383	-0.756042984584691	0.6684314676021655	0.16527992687185308	0.017943383861318923	-0.3669274676783074	-0.7368246008338758	-0.5992099253132815	-0.8544628521577126	-0.33809431467345874	0.9581558587254897	-0.12142512876110775	-0.04949669038531106	-0.373787677769081	0.07506684071231817	0.3305984476604626	0.8443343377066818	-0.05501263958262692	0.36555347824457723	0.6856401706922236	-0.8947517743061469	-0.34526744771761125	0.5525327814770072	-0.9073421155643824	0.5132006982048113	0.478278459419685	-0.4397205794719648	-0.0057998282571001735	-0.5791219254469899	0.3073698777725506	0.7910048192320022	-0.06889965701185966	0.38744404511134434	0.6106991895021214	-0.7141415673993841	0.12017128425977065	-0.06174011582644686	-0.7428853335613166	0.6277036001331787	0.3940097396046187	0.5351246233162934	-0.0706352893189908	-0.7148651023796834	0.5153717016132278	-0.42217282392270505	0.7989752471215626	-0.9906080594723131	0.8818871894913582	0.24975462995827755	-0.7297621531873558	0.5444929102035984	0.18571150794677996	-0.6379205542677908	-0.6811674791321669	0.31564395638225745	-0.41777958551042643	-0.6376116938026836	0.3418285520680427	0.8098811326720545	0.10982400831457631	-0.022775190170445922	0.7234421203608733	-0.1782199113496394	0.38617006594646086	0.8656164466563078	0.862969110249224	-0.9010225573047703	0.12141526623416736	-0.9766690633644687	-0.4944398382532672	-0.9566628410663737	-0.14456809672374077	0.5951804955035963	0.1059426896678887	-0.2496492866843554	-0.7862863191038784	0.6480366507001623	0.7846469678950703	0.9545328204204415	-0.3723687210932066	-0.4454456761140823	-0.8537552242376132	0.43930295331158836	0.4659815506358694	0.7156676024432014	0.9726107212070688	0.9946124857154682	-0.839852766909869	0.08555019950336233	-0.6228761678353214	-0.665226762638117	0.5377788642624491	0.22215491104531082	-0.3382994380320207	0.36516079199478846	0.7219822489848312	-0.19423838705405824	-1.0138334897455796	-0.8774555064972008	-0.938684581869743	-0.9909756061642261	0.7159740889421216	0.1407683738848248	-0.22643720039667525	0.31498124041960773	-0.5611677960005411	-0.06792070614723257	0.4294243694215748	0.43937166167781894	0.1748841000809494	0.8066739640422367	0.18990807692651276	-0.24574006195222314	0.7483421319120711	0.0159416850962284	0.1569612798608768	0.6765613859838525	-0.9803096034110524	0.19191136438687548	0.5108419258772655	-0.775757374224118	
0.1908962539638083	-0.6711917074289803	0.9794588403635144	0.14552460390188984	0.14602411636145735	-0.9656200501125257	-0.8010013457166408	0.07300333895245682	0.8495024096996144	-0.5348319938677522	-0.832491531239759	-0.6557627705172501	0.5643833119981223	-0.08812812600437044	0.624355607356843	-0.30469840874560306	0.6405976755717419	0.1390955993261974	0.8495731892055853	0.1004891909076112	0.7833508372674853	0.6324600296581898	0.23342819303217954	-0.03856269808052248	0.9894652038529912	-0.6663810959385691	-0.6889234516707597	0.7496617755352191	-0.43009662905010193	0.46704121971843127	0.2511433937159871	0.6173803890365105	0.3622912995986487	-0.3512786706828016	0.6889242623066373	-0.9075509115594604	-0.4824352514089667	-0.5104617625246071	0.7864984200119588	0.9178038751512358	-0.6415099186835717	0.8925754703292231	-0.7296872146566076	-0.5468287239635565	-0.3569693880448572	0.9135864854052055	0.804623712858063	0.7766025660128649	-0.6739722618693537	0.8980749459208659	-0.8117543822546069	0.6942102252498077	0.4588884900447542	0.7612961627323235	-0.6747204817549755	-0.2086666933987033	0.3349171415841458	-0.5391337941330911	0.7761158516944673	0.09121431247737702	-0.03545566694826124	-0.30587466323010726	-0.3328080956244051	0.3703347279159871	-0.9308172752593141	0.3835691221705805	-0.8222573787625188	-0.455427168187272	-0.5921685617605079	0.617722290169201	0.37309541831360016	0.16261655493313096	0.16844388237437527	-0.9002062265547138	0.5241837194975744	-0.20972347590989945	0.3144658975119349	-0.3600050348114269	0.8314483749826338	-0.6092323439532893	0.016205580189255015	0.636125642084025	0.5761961018796323	-0.34316923797888255	0.2839306758401421	-0.6007670367022566	-0.2635904602757008	0.8615851170143262	-0.5037956231691891	-0.11411671049338686	-0.49115925270609084	-0.37304270573335985	0.41647013009395994	0.7539419064383245	0.03571929101837549	-0.40544127467586843	0.2584024335267608	-0.09290864018906025	-0.6191088821648535	-0.4181838954095356	0.34571686398662443	-0.5344663542860454	0.9056822879024957	0.701553514178791	-0.5994597354012727	-0.623015534929705	0.6834817818743758	0.951373483830548	-0.18958072097836326	0.3414505361971356	-0.31796094680280584	-0.6995618976639356	0.4839907478832208	0.10641338914565168	-0.6119941669877935	-0.23458266305803593	0.5048184484065691	0.7392202331684146	-0.4285946682158461	0.5116525452222297	0.5315708037833041	0.4963394741772456	0.10604162269654174	0.6576026696326328	0.4912696404402295	-0.9218946691387531	0.3571534147073105	-0.13446027524621884	0.2775761585698346	0.4728799116631402	-0.1348805928919937	0.5949789627965246	0.6913752598910937	0.6463112944296416	-0.44947870254352895	-0.6147303113360383	-0.10024411633081175	-0.2194482525612219	0.6270518300746415	-0.36526381079684006	-0.1973940719727378	0.17041186804682928	-0.01127578904843737	0.8821443138575799	0.7168600315120411	-0.8287611353009048	0.47370953748271183	0.6742834353962004	0.4418144093470384	-0.23244922219777814	0.39147088440268873	0.12624901286181897	0.34526114058605273	-0.024780562964538056	0.7092758390926189	-0.06627147463984197	0.01888317588010513	0.8564289514584972	-0.2741352277668858	-0.8806433202816224	0.15788633379729292	0.419171742833599	-0.5711000549149587	-0.08662976901820299	0.09353170818801493	0.14637525191329168	0.7841340052897645	0.8242575826704192	0.07936531767268656	0.8711446096693122	-0.1648511414815352	-0.9438844696791074	0.5634836503993023	0.6517574930278346	-0.5560440557599006	0.25561893658186624	0.4367402736650327	0.08020552033077916	-0.802586310631532	0.7337568243217328	-0.4536361043214611	-0.8755893125151163	-0.5700984246129909	-0.0809133228936946	0.6771277758116283	0.7910913677634339	-0.5888807080407414	-0.7756933940919428	0.4037449019119016	-0.019734254042663872	-0.01882990293647072	0.12676546832335542	0.1920597414054623	0.42307442853096583	-0.06946533189869733	0.1226619046006408	-0.46747519915064817	-0.20219946753270324	-0.2825319937178197	-0.8204415455141223	
-0.7837695454306816	-0.07266143484037046	-0.13413078333481826	-0.33518093645695723	-0.43771813335591564	-0.24023631582212082	0.9952283198270375	0.9874610414530495	0.8001235101457724	-0.6423656212888035	-0.3395150187318433	-0.2995840265895851	0.5040574185311415	-0.9924910749058073	0.14092650969036627	0.18673455963711885	0.8096501838558593	0.6594894570789799	-0.6624026921144232	-0.4208417168540993	0.4887052781536164	-0.8390180988498054	-0.9654852914712901	-0.7180086022494225	-0.8134054148069143	0.9025805959241557	0.38811529990107735	0.7941510586953782	0.1662474861344591	0.11328522223499385	-0.03415874228020872	0.8324208514822393	-0.7053567055174134	-0.4150631660886914	0.6886606265919922	0.6061330420345409	0.6256421079476989	0.4021641416929735	0.7669424924729265	0.22357662537003906	-0.8281824401652271	0.12783537772855305	-0.5395802298601783	-0.4725369869005272	0.957652200958148	-0.8789855122858143	-0.6563851430058278	-0.8376421043689246	0.4772911291971675	0.38722198595656626	-0.0030223000566404713	-0.27928079469898814	0.9467841554795682	-0.2793467249131682	0.7018307267292725	0.1426695549334717	0.10326690292735198	-0.6196326174339157	0.46459901890249394	0.6603366348034245	0.6055007151119775	-0.3322123069093481	0.09996580527156194	-0.5829358278659286	-0.7392679642113239	-0.978209740489744	-0.6097602336772618	-0.4609657023891214	-0.473440919457726	-0.6182109898084763	0.2688958980530515	-0.5746773486057534	-0.26706063287662213	0.877371186788755	-0.8029064932801621	-0.1426859442568935	-0.14492416098445182	-0.6126044161448817	-0.900630939581067	-0.7264749297637401	-0.4763085753374295	0.6962790003622558	-0.6592119870716712	-0.6621481349345906	-0.8336105850175871	-0.1388589240284057	0.8931686582807317	-0.6760893243291375	0.2983764627835275	0.6513423862378902	-0.4863846511572595	0.39806142719339	-0.2800382590907269	-0.9809479488454234	0.5330715272393939	-0.6633030772177949	-0.16841849278328258	-0.20165500242882786	-0.6353841972543502	0.978816065870456	0.06924143412536574	-0.9865266462209159	0.7423761001991812	-0.6029788822116359	-0.919525586990611	0.8203568989014652	0.17963842214736753	0.20538218955946386	0.08984432442057302	-0.8245266281536753	0.5625771965467669	-0.062277629411950065	-0.09624593154079401	0.29316888282166464	0.1418130430951607	0.3782179297370671	0.5428295392530866	-0.5353414032042381	0.3989887978292889	0.8189256547739788	0.11403134098653858	-0.6963507103564025	-0.5376294440140137	-0.19282779153677365	-0.6011045232018812	-0.9412026448994317	0.9079955193317591	-0.19148528629183761	0.8604147688348074	-0.21386112691030412	0.018413500642833362	-0.8400450876010674	0.7666970248337829	-0.9811484230776438	-0.20408320227696516	0.22087718221668348	0.12865029354491292	-0.27889617509786574	1.1062036788948568	0.1558779474372569	-0.2161611934964446	0.40328186253497633	0.8108408618794369	0.7335249042764083	0.3079374066350365	0.46673017251898113	0.985906199077023	-0.282181450627067	0.4814461287189393	-0.7445627496493505	0.23760414905828334	-0.9430140199322757	0.10903307941331056	0.8409950468807126	0.4248121319509074	-0.43248374658072464	0.6585664075089084	-0.110908433914143	9.375909167205269E-4	-0.5537934392621194	-0.9324958695252418	0.19436967825819815	-0.9055153254612828	-0.6175467608850362	-0.07053892546011105	-0.8916320391947932	-0.257636639330193	0.8055104489263845	0.5568324806981058	0.19108174146312226	-0.5025004293235884	1.019582747504206	0.043417774132388565	0.7498884300211744	-0.0619222296061265	-0.46248988601797486	-0.9861275247851686	0.18743819651669721	-0.2193977630377977	-0.8256973705365163	0.6275355982436338	0.5428973194973298	-0.6679638960748945	0.21728501984593618	0.7898091774067959	-0.7848355674339463	0.8152550778206873	-0.5410385640826081	0.2629690776058857	0.2902504990668296	0.1324043017078598	-0.782121112846685	0.37531764091552994	0.5516902496340896	0.9599339247540423	-0.09131443488123606	-0.7062337319209199	-0.03350128065809196	0.7313543690339955	0.5793376802431447	
-0.2788049622852662	0.5565591721178653	-0.1880718302305835	0.723876873345223	-0.7839521738331874	-0.7980548254712942	0.7128767924192472	0.4171644406696458	-0.12926505201740301	0.8671811014528717	-0.36312255594247983	0.9349167697992518	-0.18157394733744817	0.015615448019072654	0.8956483518811105	0.18849372082628546	0.6781029863659165	0.910835983123644	-0.07939682147590947	-0.8586069976210566	0.2591646914719518	-0.5321242496253703	0.08030979557989691	0.03563658404265942	0.7982254697130219	0.4041042522257736	0.587435045843539	0.23656663868343467	0.1510785196771487	0.7563579792434085	0.17318754939892358	-0.3283754870136935	5.308195554726078E-4	0.11831521288987651	0.5173250613399296	0.8917529186664602	-0.441775410957271	-0.2442081704994788	0.7330174052294604	0.6287950100803456	-0.17901421273048726	-0.6838250108139865	-0.5786723803317392	-0.937483536193821	-0.584629360625909	-0.6982096472763386	-0.9006702005147709	0.9768154084422904	-0.8774013259418689	-0.46187584310676144	-0.9833387281226623	-0.7500294797141882	-0.017211334690161458	-0.45292988343643725	0.38943551771177437	0.8729419722890005	-0.44668184370781483	-0.39699497405376805	0.5965894383870766	0.0015269233763617915	-0.09090221278133713	-0.8399483740305563	0.8195647572016226	-0.9158872708830739	0.9032244391410048	0.9964403143856422	-0.21786757435729465	0.23250475120304778	0.5936585670230725	0.8726239328865016	-0.9315930074206461	-0.12380026656020512	-0.11641409914882217	-0.9107666159115888	0.6260094642319137	-0.37438634989119973	-0.7609238711019176	-0.49427196220138514	0.39340303323432746	-0.4378020201740525	-0.6403052126710816	0.8141523633012513	0.9200748150812174	-0.7150663699612055	0.5461903355425601	0.44357352813670453	-0.5488677556393035	-0.8683105771553514	-0.8727413020140835	0.9903748192162489	-0.27945976220286306	0.38933639189324604	-0.6792656142529498	-0.18238892069924767	-0.6713585334154057	0.7163780851113828	-0.5809284671857717	0.494841461260976	0.07466523329672337	0.01072543016209205	0.7457265917263126	-0.295511220522289	-0.5740278897632943	0.0912173691422245	-0.04753093911646093	0.5529039960807595	0.8947516412086499	-0.6974923625962153	-0.18682313754821536	0.2617796652837366	-0.6990499200103012	-0.5071883825690376	0.28356281322991733	0.3311338127118943	0.07360062975103132	-0.2714878072392605	-0.19905549447151683	-0.8200915148334942	-0.2685373498007933	-0.17291794756289278	-0.7276259832491463	-0.5068783921646784	-0.5250689176559601	-0.15366994114134383	0.004354234199312698	-0.5481072007550968	-0.8597430741696959	0.10806783302761672	0.8662108090456512	-0.09111408727796373	-0.5385912132865407	-0.8841480868829811	-0.3226936323087397	0.6771268334478958	-0.19884307333369572	-0.21734217914947246	0.5255531794783861	-0.7859831547831571	-0.0033528349151838153	0.45514619900309883	-0.6455527869638487	0.16871227853120732	0.6819616428219537	0.554767684450285	0.5733748919819885	-0.5889671093008353	-0.8746814364591277	0.8132921417973303	-0.15008439074988109	-0.13764920846124523	0.7387642481924261	-0.9481956010124399	0.1320481709639386	-0.04966728014920023	-0.5338683786547921	0.5428471015147381	0.5875557817921625	0.24589944921282048	0.1986773434231246	-0.4760190866564621	0.4453402693857669	-0.23548773269498074	-0.4929158230281233	-0.055079553510593605	0.941629780151636	0.6324578437884033	0.5593714460602726	0.6598425577585628	0.5900627811059869	0.7466213462869321	0.19227293612037322	0.7812306809378586	-0.8974630004391551	-0.4429503507561599	0.489478999814316	-0.6402829177881758	-0.571488531729044	-0.2037573343579505	0.09874899519015176	-0.26056110521329967	-0.9757483617851014	-0.012279676653925646	0.4491633149700491	0.09561970352828233	-0.6595710464572112	-0.7601444364821582	0.9348850599726944	-0.8274502168784276	-0.6511833084257656	-0.0027815782572880175	0.7865200536441764	-0.3777670569347608	-0.8743527927064115	-0.208379457314198	-0.43679858433586743	0.959800240190641	-0.6796492145228034	0.46336508114661445	-0.7553645907683761	-0.8564542867539531	
0.38296166894984557	0.39714670526256224	-0.628823375402967	-0.6400124173382638	-0.8357933912357062	-0.26900065270722007	-0.8154399637575667	0.2610029235523314	-0.3089881166555527	0.6601272609650118	-0.05549970428987027	0.4410082278161655	0.5098067898688565	-0.6162303704862186	-0.8315291833715835	-0.09813210794410059	-0.1256179087774362	0.9971500175127277	-0.8823461119434249	0.42120698204919244	-0.6818613010018834	0.4839313603069942	0.25068388978238215	-0.3013436880398757	0.058021912466728345	-0.911617222735324	-0.3914676231064084	-0.4143484145239551	0.8385162442485437	-0.7000910831778887	-0.4684936405335201	0.0028146788487283057	0.2649501974006851	1.0047662580441161	0.26004326183039556	-0.6847449249821363	0.9145927209211797	0.7332512888572804	0.8945844366378642	0.6159106959616845	-0.48589845610469834	0.2891744096342192	0.4555245934737566	-0.21199387883840728	-0.9541912044156289	-0.4638051323676518	-0.11111346932723001	0.13948178801239128	0.40348032131854955	0.7241877201114434	-0.0683974012509944	0.6262495015640901	-0.08122831805811148	0.5004923166279913	-0.19807773882057567	0.31249919134664156	-0.4739739823281777	-0.9528605639447254	-0.42080135560557547	-0.23505113816266288	-0.6102961241148812	0.9899233532676249	-0.9828304739442533	0.7031504862646211	0.3388211116737303	-0.7256791952243846	0.6946240747754636	0.8869782317404785	-0.2057903282420799	-0.407944927794907	0.91462618366785	0.9584759399685897	0.7114655874631404	0.03494222094679632	-0.826486119250846	0.18316961487028666	0.7921068068015898	-0.433880784947344	-0.6587187072763202	0.7755297709664187	0.044917528822468106	-0.0978396049958813	-0.8757332772594303	0.337361199358412	-0.9602903197636512	-0.47991648027552536	0.25304721217285275	0.43337833607806603	0.3779292263949549	0.6491249213852178	-0.7548585778153454	-0.1335497046266728	0.6483177355220651	-0.5911975984720923	-0.6287480174897054	0.1925137150686048	0.6188089115483867	-0.9432869744097812	-0.16976137403914088	0.9819220985798811	0.8349591634151079	-0.8731158662714378	-0.7362952544262749	-0.9236195884378092	-0.8399604880971603	0.9546889044805422	0.22054854736659546	-0.8534653680009769	0.9821789743795082	0.6218956383958117	-0.727665213838602	0.11360046992329824	-0.30191087115605053	-0.7403706824309773	0.008365789498341275	0.81773384247424	-0.28679979218392176	-0.46437647872709065	-0.059848414397721796	-0.9366662994634052	-0.0314364956553716	0.2634413369161155	0.5275979632118445	-0.7674599329593134	0.36210268509179866	0.041213570129652426	0.8365550956864682	0.20009489498981728	-0.6497144706847346	0.270605931111829	-0.8083299353705717	-0.5635140200487865	0.34735903514201877	-0.8786843490276539	0.556241582038031	-0.5912155086967613	0.19314957738854568	0.8196464690551316	0.3135949253041338	0.6100561714821017	0.6830813376029935	0.27639736596559134	0.30859156119784725	-0.871032241270385	-0.12129570761833701	0.580101315783233	-0.2843322487791504	0.003625541050833085	-0.7736974947573022	-0.4058860233549816	-0.8267062507534636	-0.4662343203095508	0.5364675526361528	0.0165546839355198	0.3308784695110339	-0.8791932553615699	-0.7264714842045498	0.08186819913003816	-0.40797172305689317	1.024975183656618	0.2834816807943191	-0.535946047599086	0.3476617389302633	-0.5877271936941277	0.43233885971248903	0.17961661066383916	-0.3289508473053249	-0.3752407905799152	0.3243209570722828	-0.22004530753816784	-0.7130854702116872	-0.024822984082335433	-0.41293058170613184	0.9990152372912595	0.4803835623385783	0.968973134570375	0.8420252942504154	-0.8135246227188497	-0.1122828761335512	-0.2200679972595689	0.6221817518257855	0.7626536764627446	-0.538307928183101	0.05176677086723778	0.21053971260950272	0.5819633782919201	-0.11168448658493253	0.20032033000692584	-0.5847361242785675	-0.9640284677474988	-0.782094783300833	-0.29331855673299756	0.09711947349564444	-0.20106302028508094	0.07319433602551328	0.6839720906540928	-0.25628821973295085	-0.09313666495352725	0.02924487443123998	-0.24305977428660852	
-0.8260141946262481	0.38428028583330553	-0.2930393759034822	0.1347893720252578	-0.3399556661078705	0.9159564021151946	0.05489403442516788	0.05956528391219032	-0.20256808806197105	-0.12400911157550115	-0.08715087730616647	0.61545194367003	-0.9795511449500026	0.1578780769404388	0.8649714761429491	0.9386266503841182	0.42062318223034023	0.46021999945728853	0.618288719211313	0.4406821090766675	0.6742823906823241	-0.012099133657087924	-0.9802655842614622	-0.8941981491269563	0.6305170934849684	0.1709937286635631	0.13994993086600976	-0.8800714135104353	0.9174678565291896	-0.2385274958377045	0.3540288185118489	-0.49604227906550397	0.3391203643363617	0.12317420076365945	0.9583043996865909	-0.1371077692047697	-0.9819068106954321	0.8036068761632482	0.9303516726460386	0.2846273648212931	-0.24704414832063715	-0.9725419159639436	0.5241616394354303	0.3106708175053358	0.08783520928424984	-0.1584788137344266	0.05587954284573186	0.2623848078246005	-0.21706924893063242	-0.08488265986702806	0.33651760018399657	-0.21480845195363393	0.040670341194426876	-0.8822581993490334	0.4602279405045658	0.9050645603798556	-0.8665886832806129	0.6767307765990587	-0.8289854448182378	0.8293121804635507	0.45984882090407003	0.22635268091820482	-0.06951603856638003	-0.26392126330005117	0.5943974281639223	0.4707268146046978	0.36308968875351083	0.4111518142854659	0.5402396459086725	0.7662710632929625	0.5443998487946973	-0.3717960944825924	-0.4293423138159548	-0.6011327455223191	0.20326542455590255	-0.6062630666995695	-0.7908193263495633	0.40034672143164013	0.9387108506980691	-0.04650930203274073	0.5559725319479992	-0.7742380133125322	0.35984700561139105	0.8925726783070322	-0.5574844628717999	-0.15602711473581596	0.5740625631673989	-0.468968813982362	-0.36820439304395214	0.528392215491374	0.5352726853047739	0.766655119491016	-0.982234450011623	0.5542644526925956	0.45294528584750177	-0.2870235605135402	-0.5302492585453026	0.7216983790051865	0.927824560235037	0.3085271149419729	0.7214422473013004	-0.2573143703456023	0.2509098008505032	-0.962812973789966	0.2582474915917826	-0.7409383045672796	-0.32183318332059124	-0.934644690687092	-0.9154724649939492	-0.48370763561408553	-0.5073334583649912	0.6345161488299337	-0.3706231378194583	-0.5452308086337777	0.5550877643864615	0.8195512741230434	-0.08135167474895963	-0.4453121402154034	-0.6532893417156084	0.43389867819795835	0.3040290236644085	0.4513582894624267	0.2362196494591791	-0.1445498164728071	0.3686954519340798	-0.8802401305171828	0.219921963345618	-0.9329182374537184	-0.47866591332254366	-0.29740435128776144	-0.08170971884643956	-0.40738029646922913	-0.7241728526966801	-0.7242485363109371	0.3850426735103867	0.18158306560151702	-0.2893290948014425	0.07339554319373084	-0.6283076829540756	-0.6110309869267933	-0.12500968359116021	-0.5574354927502082	-0.4750270582591922	0.5983064801985438	-0.14207816265045717	-0.12068864005905255	-0.6728595332691057	0.8689411358520178	0.3330515985791514	0.5658307676658703	0.09128026559633808	0.8669431286215509	-0.36987549172371204	-0.2595856002280732	-0.6065477754244791	0.5549307259585481	0.7684376899331582	0.17620205271197273	0.9513758137634489	0.22868772854517555	0.920141210269407	0.46456352108275756	-0.0473443688751207	0.9354811907446412	-0.9141398119352075	-0.01188072088654728	-0.6546657497402103	-0.7952878649596967	0.0958467671470258	0.8056880306441733	0.8911999610835412	0.22266441340911217	-0.18398558443738242	-0.8590267711102579	0.5120252476877807	-0.4568526209856248	0.07137411181606157	-0.24127132885669486	-5.894325083535736E-5	-0.8745410127427171	0.7053959539596542	-0.005093933880232924	-0.07324759653524833	-0.8019205373120283	0.8736800494635225	-0.3843337573882658	-0.774159645502578	0.972409186425561	0.6939321787677315	0.9605412207231198	-0.9778824380207507	-0.7301516610132484	0.7441678050028634	-0.4903180952610083	0.7253178984516819	-0.3978732715113249	0.7456564413407574	0.4184001917303747	-0.18928072376354185	-0.3980108077941615	
-0.40085695475399863	0.45692141582091145	-0.5788420557822191	0.5428060965021337	0.3273642098549724	0.6996888638991988	0.12215973199474904	0.8134002835314644	-0.4888122670286884	0.6076760998065165	-0.47393011996698814	-0.5678795643801414	-0.06318826787004758	-0.33119579770389024	-0.9082580592057007	0.656577342765411	-0.8091294340880771	-0.7714134075392012	0.48330755463041325	-0.5297778090038563	-0.6343938619716074	-0.32875885835786506	-0.672003602786011	-0.6067613733209428	0.5832179469090992	0.20657428017986798	0.8089845977375405	-0.6060600107254559	-0.8356368123194233	0.40345533073334844	0.9028566163977687	0.9804073390732374	0.7104149546935371	-0.6545473126530003	0.2605196112365139	0.4016121460809798	-0.3787453019430381	0.3937947330167241	-0.3406949040026948	-0.06150619142850156	0.614270030486198	-0.8437095620719254	-0.12501997747470833	0.8577698560282977	-0.06351838985195687	0.8991642623737118	0.44983097509272457	-0.3263378656160764	-0.8241889260247772	0.02084499416370686	-0.5613429843528431	-0.19662917133506244	-0.44608427327608147	-0.4248335610994961	-0.5372482141579371	0.795443425760583	0.6825783624927715	0.8886806890572405	0.5588617428372264	-0.4177464931507384	0.6631854140900285	0.9657491100996869	-0.7220581610797767	0.7481195539272342	-0.883986575885264	0.8529088005720614	0.21975293897887124	-0.8480672666604709	0.8310713443249609	0.19235635230403722	0.7183966154803357	-0.061667758109553925	0.6652584372878714	0.5165073036035712	-0.056133560513207316	-0.38133891076436816	0.5614287482620038	-0.45469568664260446	-0.28751188702248537	0.6447875826128298	0.90528670937259	0.8442437442493589	0.2989350242604168	0.5852934204465823	0.9387526316464891	-0.20001761790465314	0.5356068438188198	-0.8390434453780647	0.7856162787177647	-0.5511632796173132	0.9631988136871256	0.029971986489139468	-0.1716649643862705	0.7536785104447792	0.4061527358028931	0.12118073295509281	0.9298649168637866	-0.42653857501025894	-0.7924137587511043	0.3403636975955501	0.6662030557943499	-0.2568135460793126	0.07307136078069078	0.8251625016787515	-0.41126077852685633	0.13008361374827243	-0.19350582819133982	-0.3082013764952185	0.6853489171684933	-0.38571512775490835	0.09172824754725832	-0.8096323013377913	0.48998856906262445	-0.8218752800413069	0.20251613272600025	-0.22480867465506793	-0.03534759881613167	0.6487282087165971	0.43125312038766933	0.4428367667140919	-0.8744218190453296	0.3996078581847492	-0.6479853722418834	-0.994572251310265	-0.8041889000581249	0.8298623977893745	0.4968082077637312	0.6493391068812081	0.5477000724005668	-0.03309390604919092	0.47412180699129486	-0.9061336932800756	0.46612031900130424	0.8831166415055193	-0.21661428194139157	-0.20719164072032198	0.4103693327951638	-0.011803039059074514	-0.7076913866737998	-0.31410402410529803	0.07877478195287461	-0.18724430339653572	-0.5960688708157755	0.12990183139247044	-0.8216068745909522	-0.7566327191663358	0.7364817905500914	0.6197665333565333	0.3067378375973422	-0.7367730391567595	-0.37690563805938593	0.4508128683243963	0.22762593285441043	0.4613378661986197	-0.5311732639431574	-0.6544275027320043	0.5930847144151904	0.15147787721800313	0.8977997252877277	-0.72098305071804	0.9193355809639794	-0.3903988267389847	-0.7136934253983125	-0.058158798501692636	-0.11059460340952113	0.6825207366048512	0.29862188909573134	0.40784234958720605	0.1725986652204977	-0.47836002650177845	0.6504148618440649	-0.143480392944473	-0.4669383166076769	-0.7311186434553687	-0.22985620703941345	-0.5922224257818716	0.8259897193939256	0.4094933286143169	-0.24274235763820098	-0.5957618952786494	-0.35665614401208956	0.12373455917036859	-0.5731246203116813	0.6051044957855628	-0.9452249301372895	0.6200094716591276	-0.0044984447404654865	-0.7715106263068601	-0.9865139960758901	-0.6572653696684431	-0.9490239563623132	-0.15093846395489627	0.3593808882053764	0.8926354418526888	0.43639034288693906	-0.820920693839689	0.9521918570032709	0.9208708547207543	-0.0310944255747742	0.5898506421923133	
-0.5495017712674166	0.9428849994229301	-0.15119277397850361	0.523843509117233	-0.30692460244189756	-0.412658338023362	-0.1073949041423695	-0.7470238155261021	0.06251297485610759	0.16572853231368032	0.015799700977809045	0.7098914366153801	1.0024608544809475	-0.925399342292355	0.7874164214769288	0.4602977139529726	-0.2985326939425191	0.67393170215316	-0.24078370241666433	-0.7020524015172939	0.5601466806137184	-0.7613624020403722	-0.19468770272424138	-0.7670193778512737	-0.07374135095454454	-0.812327468418728	-0.7421552269203805	-0.28473485741244525	1.1104753951118556	0.10811840560551556	-0.9107785633557712	-0.48767185735611457	0.1291737103395513	0.901090663292501	-0.6032322106920086	-0.30639947525884836	0.2588766265879278	0.06659184984673196	-0.9917267132814344	-0.7271828817516407	0.7435976249647714	-0.5463664778409598	-0.012552272472768319	-0.38387458479158837	0.7271622048963404	-0.08575306842328259	-0.5473125966070242	0.5827846911993335	0.5314339150934467	0.36270744658422854	-0.8164095214745	0.5508636611558718	0.957684796530891	-0.4071098655361333	-0.6343420451514146	-0.2466993171727212	-0.9280793749056512	-0.41535630354173264	0.6733689743054304	0.43572925946360225	0.3842421388937472	0.004770753199808789	0.4252343524632576	-0.8885543565756618	-0.01374882775450777	-0.8913368931628443	-0.04695684993256817	0.8917592175577836	-0.24524565165236034	-0.17324619314036555	-0.6133082126043965	0.3141108967124567	-0.9265448433996578	0.7653723687749266	-0.5774608781787003	0.2862557917497043	0.7973747377978949	0.8679374977767171	-0.06209518452611343	-0.03644538936501047	-0.07646700719579638	0.9788359551254809	0.47421230923493884	0.5443119500115944	0.6166448497952826	0.6026223099234155	-0.31184315883238517	0.3258183347496545	0.1028935242561038	0.054136120718844515	-0.6527428057762031	0.053443555952006436	0.9364316423106328	0.6094996834843847	0.23809932543389312	0.902933200249312	-0.46455539122289624	0.869010983833258	-0.09274880014601992	0.21104261076666903	-0.26326607740090596	0.565044140417266	0.6727825849486573	0.7144855251743606	-0.8602706629829449	0.4967627493465993	-0.7071412395828169	-0.977297529972261	-0.31563160060438383	-0.38938368313596516	-0.3553035717195435	-0.026738486167094254	0.41509527377663913	-0.8316909700849994	0.14802859692682832	-0.2589862516708611	-0.12659588355790957	0.7234903575126983	-0.585638782684219	-0.07878447885653807	0.9268077619623525	-0.848986357929479	-0.9264531133868467	-0.5466530073897001	-0.8497474188633882	-0.29679096398493204	-0.2094438412762963	-0.8411840831718759	-0.4999134238588065	0.518884337082036	-0.784472523948128	0.7711802422824268	-0.41970842954164755	-0.39423466680780006	0.6630734326672701	-0.7474109833382301	0.9705607347849596	-0.07407953510675737	0.4914387662187415	0.01729463559224699	-0.2662640006009657	-0.7674134683097185	-0.29739466292699246	0.6018781573991105	-0.6177644610435088	-0.06969751902008546	0.23650426027489815	-0.45473164742787614	-0.5683547508569744	-0.9421223787367284	-0.8511484469450135	-0.3406532454193075	0.3379627522023095	0.25128236936619247	0.5461151333762229	0.5532282037986671	0.4146101874040309	0.7872568474611	-0.607428985927749	0.5484379576439659	0.7231407179682332	-0.6820459583098106	-0.12466445520917972	-0.7878766527826847	-0.30738356722315724	-0.43191397676017174	-0.14841104545544362	-0.21978562584142564	-0.8858461710510586	0.6527152567833604	-0.6713439906949321	-0.07719532609399932	-0.9544294953300136	0.8281562634056369	0.23484979440980194	-0.2508182828526435	0.21003184024817184	-0.6533659933716073	-0.352610418953584	-0.7811779495005791	0.43282420620318746	0.10476584298506703	-0.4476811146345506	-0.6571366446254439	-0.13685006546429024	0.169374934058266	-0.5279694499666294	-0.3405076123302714	-0.3337373163406231	-0.2867941639802369	0.9199338731418805	0.3068688581767295	0.5915013639183914	-0.36123380255636656	0.12611340386288636	0.6535108798418913	-0.7296470638527175	0.4829220790132135	0.5706897662699978	0.24130222051731354	
-0.35474933612331727	0.5373504275409964	0.14357486221038307	-0.6031757361921721	-0.16523435201910824	-0.04156654703981875	0.29545134803811623	0.2548279599210371	0.07493587649094251	0.30616217878645247	0.5049380939307923	0.5411382811881091	-0.3469387191647552	-0.07078578740630644	-0.42560263335574444	0.47832315336998044	0.03549872747774353	0.43909676201470743	-0.6916301021585439	-0.6837581825597118	-0.9188530516338654	-0.41622429491387186	0.8440267061910656	0.9261656468292768	0.010801858443440964	-0.12369019535982209	-0.9740876506444492	0.19164088573854465	1.0550189257129352	0.45121222105556974	0.6305829942368321	-0.13947634632346026	-0.23999649980774895	0.23260719840829117	-0.02974417676267936	0.4521335472362619	-0.7050142640477726	-0.4885325605052267	-0.686937154949504	-0.013119567634847475	-0.07110650543022111	0.5307070664257518	0.5371920075535714	0.44345343098935713	0.9365240955815258	0.4292927238319669	-0.5899311569567308	-0.18687020970049154	-0.7697621956228689	0.9250108949601349	0.5235935393209885	0.6677388819005993	0.21454626861901563	0.2544987238245791	-0.26014919626430927	-0.7050969350507853	0.7659430329571115	-0.26013953268676	-0.9297598932523423	0.8775065123074524	-0.44996385502023617	0.7530597553234121	-0.5073347746286698	0.3627447594972798	-0.18084174296790428	-0.09195361746703727	0.7730558809021874	-0.17854883713977185	0.9530907905154956	0.3982275716367857	-0.469062864121563	0.3047128882410784	-0.5916458919511477	-0.8338458623544474	0.3265151359500225	0.1305729921134182	-0.7249217141625957	-0.6235337080908919	-0.06396037227004907	-0.5734942593591834	0.9527287551183199	0.2184096296719729	0.26051412260818335	0.38646202614445874	0.5333596454806462	0.48240445461988485	0.3302411924625867	0.39062967456976844	-0.4540530160836862	0.07962713152062438	-0.8687147222749001	0.14755788980071177	-0.7898523589111331	-0.4898945322589236	0.9246499844894616	-0.7491662297551787	-0.06407424288318203	-0.9804314746835542	-0.03787620782509017	0.13655164755352447	0.5972025041230858	0.7797810795246395	-0.3742570521105367	0.8104181301728889	-0.16825498944154318	-0.12982949738652505	0.7612559044337438	-0.8788260871389686	-0.8416486006607872	0.591328085595281	0.5905733579803745	-0.7256463096892088	-0.35678330827575866	-0.060036063758878086	0.5672777913739925	-0.4291428664889688	0.7529216044175102	0.297842062772105	0.03757872248516522	-0.602321742013917	0.2813041968971013	-0.7849838474471553	-0.79439346693019	0.8897086293945263	-0.549085989192948	-0.2058854335234388	0.08812298400699879	-0.40983285524432217	0.9711195144188576	-0.06792123027560286	-0.12370256152784166	4.490915016609067E-4	0.5648337876243961	-0.19284548512476826	-0.689137925692237	1.1344181072866966	-0.03352221610396261	0.3218253427902323	-0.3111270985770308	-0.9704109651562387	-0.2719421295165684	0.7316747936721172	-0.2875424690852618	-0.07253840783765238	-0.9776965606550791	0.36325114458179697	-0.9442581168911646	0.5273067084676382	0.09891258735410859	0.03763465924192432	-0.07283318734457048	0.4409724245966355	-0.8761262732282474	-0.25225773830337545	-0.3269904350028277	0.8473969529837325	0.9677702282855589	0.31575846787975204	-0.7361355524806167	0.26805409734003816	0.14225820658607707	0.6290705801928641	-0.014376541046017504	0.9789352771858885	0.6951645438795424	-0.08335103073468116	-0.5698859345047478	-0.2103241974094034	0.24303634529016707	0.367415974161758	0.17246068444385018	1.4574528800404327	0.13149735208367888	0.7835827127684085	-0.4613438230637218	0.7831267704397852	0.7814723213614759	-0.11668027179057017	0.2809797425116615	0.2381443486065229	0.7546624654621396	-0.2782156611191296	0.31195957178584455	-0.32308777207815104	-0.11512931102959124	-0.08981250942753943	-0.7684528093519675	0.6766779380201497	0.33969877075606203	0.40931014344470645	-0.018128658284773672	0.7467502233360158	-0.953566900047526	-0.5065607292888742	0.394870662707534	-0.7056952075244279	-0.39018363544972107	-0.4301138699762621	0.7576379631945158	0.5686655412983783	
-0.6536131683343883	0.5567602781226492	0.06280723961272743	-0.9026577531293394	-0.37438860718611316	0.8023310976324135	-0.44196526847321804	-0.5450608656674668	0.09501186777763646	-0.7040631646945283	-0.727989400746034	-0.39844347871054486	0.33481077168436685	-0.004243952849203547	0.778819209793967	-0.9588012407107674	-0.04403415525582305	-0.715511534212008	-0.8234692664769827	0.25795535168803474	-0.8845701511899072	-0.1019955281295199	-0.32754876419765105	0.5102714300891171	0.29040061287005514	0.8290378857163352	0.5670015263588405	-0.11785683992231641	0.6464961111050849	0.5334525454793082	-0.7464253445563203	-0.5914452990634652	-0.5612032489188216	-0.7498329492264232	-0.8259299407505674	-0.5995119165564691	-0.05612744010714296	-0.344042449315341	0.39377228575138656	0.5386173698557628	-0.7837320215313516	0.36321527413125215	-0.23116539257534463	0.6817564847654752	0.9620533428115186	0.6166799766816211	0.5783633221893605	0.3319903625318299	0.7246098553179315	-0.6435947402914611	0.23398531643875448	-0.10225752545460876	-0.4326695975752972	-0.9492731910236352	0.7370630990225687	0.6991718795743705	0.3891645949223921	0.762101029046734	-0.8354466012411355	0.9973938309656226	0.22299030376741202	-0.39413980852613095	-0.17204446756622588	0.9577903122637909	-0.09949157098894447	0.011863069738174019	-0.42634438851096335	0.9148243817543238	0.502390535438076	0.15038836630778896	0.20943052717153396	0.7866084499903929	-0.1234060649422469	-0.7965200984028111	-0.9366090726863046	0.7136382224125816	-0.9351857341220938	-0.3453890153798715	-0.0932893252149902	-0.07106974738472185	0.5616343527042947	0.059341893995296	-0.10223647064218562	-0.3713917612274377	0.9536593592181075	-0.7249108555141008	0.36640937842139054	0.4447869883589483	-0.464588256110771	-0.1973345624935029	0.6766620836585086	-0.655502281642457	0.6887249417113576	0.9020564719313645	0.7709118364283098	0.13929109381153665	-0.594168743974422	0.03230503058384144	-0.2920144455981465	-0.07203637222937477	-0.3730306355659461	-0.9257276201369011	-0.34225130766914574	0.48636222506528304	0.1620057863659657	-0.11670609956974255	-0.9077828010445587	0.2728330054088812	-0.7203162699250716	-0.3422573809423551	-0.8722914424259132	-0.009446164647006107	0.12496372269206162	-0.7324777196608132	0.3848612462128802	-0.6404433334540964	0.2890667848703564	0.24407217242089557	0.48987544943041145	-0.3379427297373097	-0.5565666983641465	-0.45284074669845553	-0.10431165972410707	-0.36876677063222113	-0.2844101052192196	0.6199756255090684	0.1405036353347132	0.6764209282717388	0.6532162790749249	0.416906111041655	-0.4886540828809282	0.9319523360346105	0.7514912363869234	-0.5590319786527498	-0.7513317059089759	-0.5044642562597609	-0.3536351823865181	0.5551644454446478	0.17341601901116355	0.27725145768240117	-0.8126299090704249	0.21045527284285112	-0.9335679143351667	0.00872973085367732	0.4820011215217269	0.5442995872733529	0.797368105366655	-0.8834404296188649	-0.47643740866226775	-0.47818409629515796	0.6304793550329616	0.39266680361742484	0.0714971874963754	0.44942263669881394	0.7589113022717137	0.7352395042174008	0.09136344626656728	0.2448482557986027	-0.4969706470354407	-0.027857058976260132	-0.4161686698969819	-0.690798003214913	0.029354938038854354	0.36832681005326057	0.8497908430290882	-0.5327763760917665	-0.784766919313759	-0.04634050626442542	-0.6245845554774023	0.29559661390873704	-0.7880263547357612	-0.7706233701550886	0.47219521634622935	0.24727135030238495	-0.6274500844876238	-0.9448518746371574	-0.6445453851130193	-0.443157295373299	-0.03824399690616653	0.22725473455846895	-0.6478927340189189	0.7588027846421053	0.909091159719326	0.5401319803087733	0.613511984952555	-0.49623130933558657	-0.11227845412906713	0.3231947379666794	0.1984597998377258	0.3956344309177637	-0.5550701800607837	0.40670862411885467	-0.9953285340876373	-0.4977469808173795	-0.6858110322094083	0.8380446323264689	-0.6135633649742762	-0.20362885847775458	-0.029483989662787948	-0.9116723950403623	
0.050815879893929584	0.2056373846396456	0.5145952210772482	-0.9394966756934109	0.3938003458379173	-0.8919960261974319	-0.4269634441182147	0.4618698360507948	0.16986144646539983	0.8309651956495123	0.04276569668401667	0.7695194117279704	-0.556608101291184	0.22756226737328036	-0.24354996093864112	0.12368861794377299	0.9695838438065421	0.8088629964582239	0.44410914288933295	-0.2818444036798728	0.7886992812219162	-0.964722289866859	-0.18963033808260016	-0.4707153076178456	0.8185873022474441	0.5535245746389655	-0.6427228673699841	-0.2291003132716836	-0.23659946836629484	-0.353898812876575	0.9825791948356265	0.9520979991193926	0.9121373216855087	-0.8607875817992169	0.8463905973033392	-0.35331857992215443	0.07935148287586011	0.048016786043529436	0.7008226970708596	0.9567817103116019	-0.5348916841994404	-0.9913791724157218	0.007743342749668998	-0.5690555765669494	-0.881878926093499	0.07544863311129618	-0.01354115106631787	0.17408420083639062	0.016463764606767482	0.5247732799831838	0.7465167506242798	-0.05038825074889635	0.45165005523567564	0.2295202115535045	0.7070954018842361	0.18797590111593007	0.656914424505506	-0.7454210481854237	0.8655690158943725	0.8064049726150812	-0.28357622192219084	0.9687608414066279	0.1625133029148476	0.35585076570404905	-0.9893141325725638	-0.13770385872118843	-0.7728110074866613	-0.5210864298399278	-0.9727270138715358	0.22568512308164737	-0.8916962919401317	0.31363713840871044	0.7835120550653029	0.8070265038593359	0.20759066557475414	0.10847085777969216	0.6715068589725692	-0.1567565346262949	-0.41919692230075806	-0.04905605330029661	-0.0390898475801219	0.28257415977926376	-0.8700471082828799	-0.599736503279434	-0.6130491930364571	-0.6040582359973596	-0.46712496292089195	-0.3942030097331627	-0.8957304410872916	0.7604688035867166	0.9978272817235924	-0.6422134566539505	-0.9011661626489527	-0.559468479955257	-0.2219616352257343	-0.549836618760554	0.9764092922356066	-0.16240744102895646	-0.8435016436334415	-0.876599645161306	0.2417715148028081	-0.7159151533182598	-0.7882653033900534	-0.4566664284025319	-0.8557757808778952	-0.7558589517864472	-0.8693193155098785	0.8581168495244504	-0.8786837365309772	0.6207096436822961	0.7258536142671631	0.7266060099158719	-0.5218186210337789	-0.9128768038367608	-0.5805965271964747	0.7409982327840736	-0.13659942478400597	-0.9043435508811654	0.8961521186918405	0.7592682067582943	-0.6593554362804868	0.19101666080842808	-0.5756828575550003	0.9363031685262739	-0.5515872132484885	-0.2024646051627006	0.8803591381069552	0.7292617603862731	-0.5709302520286308	0.34278060606182653	-0.7069148269755876	-0.9781380483030997	-0.11025222228413382	0.28878030266659466	0.4092497390223266	-0.46173259237550224	-0.036011039588880266	0.5160499551908521	0.6952642970213354	-0.6618528792415639	0.37623073663992085	-0.1712588439672909	-0.48038776613913514	0.1667328424109543	-0.7230714000932529	-0.09951902352615015	0.8796529346823894	-0.1997547716799233	0.941810505599286	-0.7215557576279257	0.8741882049779963	0.28681557194816504	-0.631173807453217	0.6318754131490121	0.8928141532229985	-0.15022737614339704	-0.6676596259104756	-0.2162143903972209	0.14453389370706665	0.6494032928688173	-0.3165620577018636	0.16538991671123404	0.6413168895480308	-0.1351272664033626	-0.6044947387371241	-0.7487300767780577	0.607083473319167	0.3187258089090649	0.48853891795941445	-0.72144124042231	0.3863955551949871	0.6955675087304571	0.05532462603999214	0.10155816069681327	0.11114335629712756	0.9902224365437865	0.11580923281133064	0.46084335933734083	0.7684983064867243	-0.6762576297851675	0.03860958848557181	0.06874388561309809	-0.2829795631449548	0.9077122280864273	0.663927962568861	-0.23965597821546622	0.3426279738103405	0.4458154161415634	0.2403251425892946	0.45128039539272546	-0.6690010764308087	-0.40537870573891477	-0.88221068325718	-0.1369689869805969	0.4372816017761702	-0.5415768092325334	0.05002875851912967	-0.829720012476774	0.26862258512697385	0.5534898215763885	
-0.28973687073704474	0.47928545619960966	-0.9707838650074007	0.5687977348397978	0.7097125852486005	-0.8608496757631586	-0.762001612574264	0.33642142069095143	-0.572043987386346	0.7795615673451859	-0.819867268370296	-0.980379662903901	0.6728142345010121	0.8929384674167956	-0.7818018087017198	0.34089282607671473	-0.6552613282879536	0.9018900141511708	0.4908896725305334	0.8000615714451144	-0.8239315598472929	-0.8663724056547241	-0.8575593480893803	0.4230264274840851	0.9295365028254439	0.41675087199421135	0.044863417795733024	0.05829090051326936	-0.08846260712847313	0.4836809590342219	0.9332316059695972	-0.17353456003963824	0.8197280625700013	-0.2841371518758666	0.11504434466297628	-0.9120615614803296	-0.4686377457976946	-0.28035841467464623	-0.1733577666845279	-0.42690671044827566	0.29192231483393655	-0.9068148442746218	0.5686923794217454	0.17687905977042087	0.8074711984941151	0.4867719276761446	0.4285719434547451	0.7253096647073098	-0.09774900042809076	0.5812219179937584	-0.0741615826221558	-0.9795407906314141	-0.3768665874933603	0.7507203865823697	-0.3557852063954601	-0.46165941038059155	0.4953882210150508	0.4286611819670535	-0.04651286394290365	0.23756261956230953	0.7020051129083007	0.1471005020257631	0.24583332543660955	-0.6954646919816886	0.12990461280829882	-0.0014997953396301542	0.9950509865596645	-0.7168607371688583	0.6408154168005378	0.4134445557185231	-0.18666339865478618	0.5775811322084109	-0.9363783421723246	0.3043295663919756	-0.26516781923466953	0.6818210308874373	-0.16737941991452623	0.9309192544482952	-0.04387639257304205	0.5268009923962038	-0.6634076005148154	0.6573267649171565	-0.3403975084868726	-0.15308283043278165	-0.9899502912435784	-0.2439521171484196	-0.8434220469904452	0.4496992028962762	0.13925368728858434	-0.18499465522661984	0.8736153535572095	-0.7975773800299166	-0.7554010440899087	-0.8862408797915895	-0.560447107686248	0.875460505565969	0.5007723268988973	-0.8928884265610268	0.6567875777508619	0.6171925356379695	-0.17297008040571235	0.6596560365327293	-0.8969228345619624	0.4555478869382611	-0.6295747354933294	0.9196859239845905	0.2505068643352847	0.8352843787847665	-0.14323483541662507	0.434757228575726	0.7143642987946125	0.9133956435077916	-0.14870635834688642	0.8221273148661423	0.25676282394555117	0.16702033954549036	0.7905856534525335	0.49888017594754935	-0.3143928566079278	-0.26085268389685967	0.47752458766495426	0.029362994425854085	-0.532710993566179	-0.284570301746881	0.8386066096236476	0.3095474305794004	-0.5393350715630973	0.8082165445320089	-0.7137992776714638	-0.5512597876025662	0.11559733378833277	-0.4545203488013061	-0.23502188801633042	0.39630846872611664	-0.17520610867340758	0.8114730503669094	0.7341727825035685	0.49311623290909684	-0.8451696970037911	-0.8127521267129018	-0.42356260044034744	0.9672100706669238	-0.7595893529789405	0.8979861319189183	0.04440867596628335	-0.3053225874468323	-0.6339322709492035	0.24696157594337786	0.8190167914606764	0.06711204209921838	0.7412411831092727	-0.32052425344380403	0.16332609586479294	0.767237991889718	0.531706108705065	-0.6121182141652654	0.9882823540950277	-0.7798519003927279	-0.6271009525721707	-0.06529300892195723	0.7521960600352574	0.2788003707171583	-0.8154119730967914	0.5052609197193156	-0.20368094800737466	0.24661705565286057	-0.45447784293208804	0.0029748846229934044	-0.45557035478132984	-0.37934987959584515	-0.3712327850275037	-1.0676327692952035	0.6854249590781458	-0.7759405220054739	-0.5583940413517263	0.30653920138218943	0.5922697159701157	0.4201065388387593	-0.08554741168857988	0.461747195646576	0.4510192222810615	-0.1309586206072876	-0.13675622537751633	-0.7715421106841912	0.2543756064230434	-0.9019917303926037	-0.21429955658268682	0.5631704379314547	-0.7264055591451198	0.7877332022711274	-0.5254952464947727	0.31501376939172315	-1.0076824854376318	0.6096724803177905	0.11548569394391468	-0.6326153062952292	0.1221774707335083	0.12798486848314317	0.9174920456033245	0.5095175345846108	
0.7398759661939248	0.30513685703200516	0.7191806537437689	0.9891527813043953	0.6873194846676416	-0.3171762016130119	0.9588781982228683	0.12345686397866946	0.42064385127066234	0.7281216795414286	0.600072467373207	-0.2648856307584219	-0.03720385630531498	0.8870302787591849	-0.5877077087795557	-0.42123040169343773	0.999941893643987	-0.7894766616316531	0.9796178520099276	0.6314818844032418	-0.49997818272177563	-0.9312828904274396	0.8012724594285999	0.39280349811799486	-0.5496686942987267	0.532939915981044	0.7752278034163665	-0.5504034276345702	0.877661887550915	0.3677068824719296	-0.12335354162010964	0.5728933729263634	-0.3027525233612511	-0.9763323295706594	-0.0961449523336048	-0.5230287572366469	0.33769772455447084	0.9930812512979151	-0.5018118666325382	0.7083921152142822	-0.6607339291636454	-0.5096318545330552	0.9603833431576417	0.9040020519221542	0.5694572451734571	-0.8014337347683058	0.0035628363760153554	0.21549784929065324	-0.8771264808054344	0.6281105929447646	-0.3077315113783289	0.9720213834601272	0.29556233212557154	-0.9151109378865847	-0.920357393157535	0.6847417150934486	0.6796714167649118	0.9806777829370126	-0.2741929632709856	-0.012828976040383844	-0.010830172690174467	-0.6368294309571276	0.218446257326256	-0.8843430360603733	0.9229067982725709	-0.024750905609598896	-0.8874191348420104	-0.016583563489287113	-0.5719064916401658	-0.7577554928194312	-0.9757226719706823	0.7889590333257137	-0.6276950464530459	-0.19695777664503422	-0.9205696804548925	0.28940246844645023	0.9772686286981731	-0.2087247916289466	0.42537099562852604	-0.5721313927396303	-0.33522794432190856	0.9253365835361542	-0.47464900857959325	0.2420204909004918	0.22753974081960024	-0.5245793493679627	-0.6240259846622893	-0.07738025169142346	0.9622779591568469	0.11355419311343859	0.6192404718841971	-0.9254943315273066	-0.4291373144951641	-0.30288398374415915	0.8452205159120896	-0.4112449929962528	-0.9139930618318987	-0.6970011052786016	0.2989999928002285	0.03883594232992896	-0.7559866816547843	-0.17491625084773638	0.6016044693527893	0.7425016430295168	0.24366723985378366	0.5812469573203443	-0.4504807525481755	0.18820870781773302	0.25375151363132536	0.4978769201519013	0.05796280850938795	-0.5535987325608694	0.26871618633060523	0.7719000196213112	0.7843157333235254	0.06696362343148177	-0.48724795846800323	-0.5877263132199819	-0.9513800497683533	-0.29283010862456466	-0.8896182479844902	0.08873536433368318	-0.3245253950897251	-0.8075015125108795	-0.3229361785881472	0.7999031170476334	-0.722977611420512	0.2620875691029507	0.5119248781710475	-0.7044172549426987	-0.5817290237149619	0.7481200144125119	-0.646521485657078	-0.41156931848745965	-0.8492043654268296	0.8166726418536863	-0.29979299757042666	0.5711800923473566	0.42119053785105814	-0.7159064431362158	-0.5517164854653901	-0.5759868595908261	-0.3219070086490017	-0.3013778679785697	0.00153820945078443	-0.19303908513152762	-0.3128783412509577	-0.15993356533709818	-0.051402747789368465	0.13286017107305076	-0.747578635576852	-0.27816979024623345	-0.05015152027290183	0.4182283666557153	-0.5161315025965394	-0.8325200408268962	0.05977955413501621	0.09017452397024459	-0.05036075815480516	-0.9705264199441831	-0.6980663583658082	-0.556271525816132	1.0503454768511673	0.23953316969651015	-0.9601958413798859	-0.3393144672974639	0.11255138445607195	0.8283152915183364	0.1627470505430397	-0.9967739806489451	0.9396132650322929	0.5293280381838408	-0.4960382464478204	0.1697833034226552	0.9841132781914739	-0.6819612279165614	0.610688850665603	0.7836616079291212	0.174049899501363	-0.8564073993772698	-0.2992895478446323	0.8796711647243485	-0.9714549239100257	-0.6491527918587505	0.2537136108041343	-0.20413323294923152	-0.6372330496657059	0.6644564016664128	-0.5698906445853782	0.5017176278204444	0.7661191079242748	0.6252796448093101	-0.1477672782576013	-0.09975666663145517	0.8064356818962297	-0.08487074378456248	-0.8803959049204199	0.7061362123110525	0.7400386248471135	0.28937668720539683	
-0.12187460082643169	0.6023922347133119	-0.33600008338605103	0.6839073370828755	-0.22104810255042734	-0.18622906148409396	0.40905199286236343	-0.7219153806327073	0.4603575243673085	0.23687443146394815	0.018974360737617362	-0.7250164908381131	0.3830076809797642	-0.1301145805795498	-0.1980027250004035	-0.1199756365448974	-0.8437036783498305	0.36043784028312703	0.19708358261680056	-0.9110404377363587	-0.9194056677245962	0.790113954813809	0.32898101723897344	0.5679637407528408	-0.0122203311037574	-0.61628706360407	-0.2611566476382196	0.9590099983081016	0.3487090719363815	0.6564179071214095	-0.1467827826899804	0.6185330922521319	0.5891653848027674	-0.834417544318428	0.09987759331912513	0.7451294249886743	-0.9255072988943661	0.8168442884439842	-0.4298484629815609	-0.4095798035094365	0.6324491750630336	-0.31832982795164294	-0.4487238793936027	-0.959237483526672	0.5866789004120153	0.3288374811380545	0.34383235045586186	-0.8415336187621586	-0.8781032142798648	0.5982140203754296	-0.30674497308977033	-0.7696429547423236	-0.8357419923772217	0.06674497807329081	-0.560564963502428	-0.6918019001888676	0.3542419182920623	-0.3451989042840222	-0.5367326657979041	-0.5384825297382861	0.27869207380266126	-0.9530634080145342	0.10488486065863976	-0.26132485592670324	-0.25257310101603875	-0.3718510653464269	0.5038578214742263	0.5324977760758849	-0.965305163459721	0.658991873484281	0.12771722926838747	0.8602594411853933	-0.06345601121481168	-0.6631046508832549	0.8785405070345739	-0.7613437801617631	0.16295806257092416	-0.9988507388117075	0.45386249409654245	0.6667008857370298	-0.7152404762697752	0.634456811739445	0.4129518087342136	0.9903839758552546	-0.676445493230514	0.9180485234692082	-0.5012087850738991	-0.9096750393345371	0.7042247994182933	0.44987781620405304	-0.9910138145370166	0.07528301570539475	0.6272586584339876	-0.39097712372480603	0.8972249783358087	0.2562971534042999	-0.7290945633895046	0.8019535071833227	0.707111307320056	-0.10978427551150441	0.2623465780635779	0.49097605124536364	-0.8125214715043039	0.2863260642779674	0.10265694046098182	0.33837379384065136	-0.3062161248063971	-0.620191467879923	0.7015911915036408	-0.35178018390611315	0.7676332244773784	-0.5482964581016746	-0.5067846425643926	0.010419060824232322	-0.08242494008655023	0.16972942018408513	0.21265348033169065	-0.9310815977690396	0.8401350331447206	-0.7959240101800281	0.17961666882434302	0.9336218450514185	-0.31228620174284366	0.011410567720809344	-0.8687056233264049	-0.2764353225804682	-0.6654033616062304	0.47884552284351917	0.5511114429603964	0.0877476727395827	-0.26861572242162796	0.18518048514999824	0.6905487208203648	-0.3149799686403888	-0.7049545509372032	0.22091771261934667	-0.4030666602346302	-0.6487358366437348	-0.6964246135793022	-0.9005117420546668	0.6553332946854104	-0.35267992602325543	-0.4808049507795286	-0.07488543128587483	0.7219296333582589	0.08359828214852573	-0.3197278109646997	-0.7924267166103436	0.893390772660604	-0.4595039884444317	0.20987691241035863	-0.1833630556965245	0.6561869457734834	-0.38758210969122275	0.5465304898552389	-0.24821189131637206	-0.03605623115625855	0.0513256372143447	0.38553062690929635	-0.24869615120374872	0.24910643117483014	-0.6301557781542717	-0.15327213248283925	0.2650222116428336	0.6797422501575751	-0.4880504253165805	0.6719884090882907	-0.7953631762446629	-0.032392882554046605	-0.11582898712680513	-0.502773323792351	-0.015794550069580113	-0.9080730906423905	-0.9716669921735466	-0.6521985619296775	0.797191816408975	-0.11874969255839238	0.7751221966826082	0.4147410833443622	0.6951580294901439	-0.69558867925373	-0.7427401561178401	0.14519419607181627	0.24613917284302453	0.08148179197930891	0.8688502832803323	0.37747542886209245	0.13884006259810516	0.5196169960479475	0.8731366780152066	0.8928526899602397	0.3812546011603422	0.5085634504769959	-0.9393956547146362	-0.8117574381734571	-0.4347573481386014	0.5040378453725015	0.8644861219096922	0.28017345706001967	-0.47216119890993363	
0.6464137549456384	-0.10000330810424017	-0.28650954124861194	-0.06285488908340946	-0.36610515680280514	-0.02336728612422108	1.0385510551809174	0.1732680528242422	-0.6003341363549414	-0.03949080612700423	-0.033037092892808824	-0.5307467030061374	-0.9426114639011473	0.2056545883808774	-0.7123621334033133	-0.2575721172251219	0.6423449982768149	-0.1809022633304986	0.1727541290831246	-0.13248486570902346	0.8800189640811871	0.7914454009025165	0.3870793193085233	0.18103952368311668	-0.4939604830216463	0.4358884207758087	0.8528344160514988	0.9363599112720432	0.3423661397487028	0.715579371684978	-0.9112600441261353	-0.7707078300495668	0.19540023489643124	-0.007530897237292943	0.7064304456001327	0.05441729633125168	-0.758762828389942	0.8482433833353532	-0.7797300979376582	-0.8164685847011482	-0.8811588923859415	-0.7611717334850602	-0.4504702440103795	1.0003904017335399	0.35742867016319163	-0.9941989970455146	0.9573448490941207	0.7774090151652345	-0.7213835897737755	-0.21143419917090134	0.06422365613163213	-0.2874498041191629	-0.3924694716182988	-0.00404600219010575	0.534634565638327	-0.8346707953528999	0.7888305031595911	0.9517046999218681	0.4388797155879197	0.6527194973046533	0.3039865401663404	0.8918439671605785	0.06861830666358909	0.6729531799725896	0.19591786219573726	0.24845798701713318	0.8249675267959222	-0.06556351224590304	-0.7812626165490201	0.6297963311350424	-0.6095506431575908	0.17638438348189284	0.6382068394889171	0.2892156486182124	0.6712154735372705	0.3682702610073486	0.1308185760378558	-0.8764635404079149	0.36098091376986724	0.876116431221445	0.7617789460887742	0.32720848399875285	0.7688383517337268	-0.8773417428528145	0.18357200189538972	0.071972394228911	0.6595938716577353	-0.8358575952855575	0.8318099373610979	-0.2647354198219524	0.169706686993798	0.49446789267935337	0.6181100863186652	-0.36676351085515746	0.5309285286673733	-0.4239157432940817	-0.5277874516853938	-0.7694978367174765	0.6980743350426994	-0.3984243854139721	0.8739985082293306	0.02987120216048527	0.45631652567596026	-0.6205462690656971	0.3811402968454549	-0.3415526888545248	0.4402275643965367	-0.24228904632441073	0.04812699101634492	-0.481847069245657	0.18197788177538105	0.8536007791954389	-0.7736605083907933	-0.530108331468695	-0.40652105887665146	-0.8089393646502406	-0.2680988164908664	0.22101374704152194	0.22549522255414597	-0.3828044159734625	-0.7154922000106497	-0.3947240118907391	-0.5405129600067812	0.5693130642860549	-0.17024624824363294	-0.6707309788334819	-0.9048262455977126	0.5485304267244989	1.0003434407616933	-0.2194912095067213	0.4355044464482293	-0.2530290388035934	-0.36456679035377815	0.9338223534788405	0.5150044661382857	0.12209151654427414	0.9064549360874953	0.11838310387039186	-0.5263189327146655	0.48215553153383106	-0.6861477172159322	-0.4545078484881335	0.7685783223694606	-0.4138668961530273	0.2569479367057553	0.9200278722292752	0.9536682026581238	0.49220297452876427	0.645217034325265	-0.0048622180941820066	-0.5426335767238396	0.0632545138211966	-0.35430236576599405	-0.2679936516377226	0.05276592887715474	0.47736954547373345	-0.5171455079336849	0.9490629263108642	-1.0020010445209895	-0.8383006324677216	-0.8792388911532548	-0.7294690470673675	-0.5771727040052911	0.6950249682705438	-0.3131841136830707	0.43703005864812094	0.8281906020518701	0.2865331514774742	0.9144568939277529	0.47416460020816764	-0.2232392235491304	-0.40960949726521634	-0.07830475262383334	-0.9627141971009842	0.7687454501051535	-0.5446252045695318	-0.5981825419649628	-0.6603093577604926	-0.8782238546709014	0.9361966814295742	0.22830729158111915	0.5792368147197307	0.7613472095031498	0.9811969821389325	0.41667335617152085	0.6439705249302875	-0.4456938803739817	-0.9019732138149795	0.4859566385574277	0.9757678880475739	0.10627151816742031	0.429117394326932	-0.6292978181297303	0.16859246557927415	0.23026987007885244	-0.29275506116345223	-0.9453414235276025	-0.6914916060895292	0.31125849415316037	0.8135660943971464	
-0.34863752430065986	-0.10244616403726325	0.58593510483	-0.12399356986004269	0.4045734748595621	0.02104342215930382	0.227921938727753	-0.07532937797540463	-0.697272201543296	0.3785610342388099	-0.06518799837406695	0.571206896250582	-0.8963317352285088	0.7353311302206778	0.4038768794447378	-0.7084683373207186	0.8041587551135311	-0.18622370122760804	-0.47571374737776967	0.689165375316615	0.0392742201918103	0.7224705661370235	-0.8277112090179215	-0.10211020590891375	0.8434644373476614	-0.6565729222630938	-0.11346763703325577	0.8137609675106213	-0.9728879886551106	-0.9485921673277853	0.6316359970250712	0.1288880796773875	-0.16966861291069232	0.7140554152655699	0.6701667561602512	-0.642204930864544	0.05626357342731459	-0.4432074284241089	0.5503313144828405	-0.013467100877437082	-0.8318893107782578	-0.9753421561482611	0.6275362212253943	0.5395165600656542	0.1747172771009969	0.60003454917053	0.7527611158781174	0.21690141534796162	0.9065711824704809	-0.2338207682440519	0.09777522962915108	-0.18195327461174643	-0.7832046320772371	0.2601959346610972	0.8848421551530262	-0.8105510023147421	0.9066179256744407	-0.29382334135212235	0.5687975599450225	-0.7855536155317003	-0.6468157871172936	-0.561013025577617	-0.34675412734443267	-0.6582382726425079	-0.8991238472986768	-0.2557821002988907	0.6823489736686427	-0.7341816215446586	-0.30047216285982425	0.7778454835662202	0.016057012178111285	0.8891365840837182	0.8838998265188411	0.6524352330600909	0.33070662182617533	0.7785465699424311	-0.07244273823181524	0.9197168744449865	-0.8072105101087613	-0.3158771489529825	0.39201712541702943	0.6653802202277959	-0.9469135827698048	0.34828720303732563	0.9145622339896977	0.7560011408809211	-0.8191418728534663	0.009656216695164529	0.6006185892417741	0.4557262580361771	-0.45813049587915466	0.11104873384790505	0.7241124344234091	0.42329235900249623	-0.46636351713100266	-0.04174035573247723	-0.061255583543565244	0.17598245390499848	-0.5774574871342989	-0.5053276926456388	0.9073931290557126	0.6408848687605543	-0.9366565419252055	-0.5715398935951835	-0.4492794028267989	0.42077003639419464	-0.9869162510741525	0.08042191558550493	0.2970615576192301	0.0169453690325609	-0.7228162578352142	-0.7029984591896317	-0.33489234459224004	-0.8145756914143035	-0.6043412955110704	-0.44876839775484856	0.30719632331263064	-0.5763821096139886	-0.8435991838957886	0.7020845594835425	0.34386295084241075	-0.3031475731688119	-0.6489256613375939	0.03773315602478239	-0.004490704217549072	0.7473257915671341	-0.8190959109429425	0.012227364748195723	0.1035543489890838	-0.2220989226958062	0.6258036987297534	-0.5920261135453436	-0.23349731202556614	-0.043693576826528774	-0.8730404621029492	-0.3012745398802234	0.5345071033739001	-0.7631790863100645	0.7918211586304	0.7247184590500487	-0.9322068198414418	-0.08523974260388216	0.5533788695603122	-0.23515669322233726	-0.42423617872144315	0.44116710161693684	-0.546502527777128	-0.2367356935207458	-0.04896075794918255	0.8534946973734553	-0.503191171718071	-0.688766462485968	0.34371389133993985	-0.28540918394324827	0.5375617815829117	0.7634747592779431	0.793850757488575	0.8840860465258034	-0.6641441480251931	0.7876840918327663	-0.4348535883715374	-0.15918707954953043	0.2841899209678624	-0.7108227745637963	-0.8904696789992088	0.06239582965842253	0.3464179722403166	-0.24323776904657432	-0.9400903139065498	0.1810203753809419	0.7728978995743954	-0.8041989313319132	0.7028400761425754	-0.06845195279505954	0.8257727510680553	0.6702912078120185	-0.4595529066157379	-0.25578099861254655	-0.5455161996824875	-0.3734837576420527	-0.8466547729829148	1.0227200646867494	-0.6633271129894786	-0.9062669340315661	-0.6617695815523835	0.6472013647300503	0.7972089115818799	-0.40956912340056106	-0.20356111781991276	0.6004314352682246	0.07037869460512407	-0.10828027729459357	-0.08241744519278914	0.41545189607624156	0.8000237756783094	0.3810098056091951	-0.7332373447421789	-0.024314355933933086	-0.2695082932257303	-0.4507114248742564	
0.20658199414765624	-0.5305647310316044	-0.272611583201738	-0.47548347198771695	-0.22803557612027892	0.1241670780200941	1.018719269265348	-0.9243234801276418	0.3506549022271009	-0.6778212816883552	0.6520341768976172	-0.900356603760989	0.07481931603312138	-0.8024161771771723	-0.2899509602026559	0.5828357373890135	-0.0861819937750388	0.6734624727230851	0.7826076595652643	0.2686680278024207	-0.6144286547755847	0.9361100879846344	0.8300670390978516	-1.0034501132498785	0.3432741530470285	0.17440535200907362	0.6356170711561733	-0.7383304142619654	-0.44667906437702354	-0.005223614781754228	-0.2311372473212677	-0.8696445029483342	-0.48035156813645724	-0.05089052914065542	0.8294746439366987	-0.013129460637017363	0.751369694857345	0.20624878430818477	0.04344039883672847	0.31912325491854493	-0.8267964999946429	-0.6359364508548755	0.8461142975381081	-0.8085030516224225	0.10977070907237295	-0.2644548302313142	-0.6309931318013422	0.09626582209639492	0.3207059464220937	0.6805335170867804	0.2427616372437743	0.3005299384949234	0.7480598864694791	0.6686189289177823	0.9009964890395279	-0.001821718150366938	0.027713072132777773	0.7109150520311855	-0.16391641980174715	0.9282858095304212	0.7705030755346638	-0.14014262879495848	-0.3703688200603261	-0.028436792628304963	0.023131185824056277	0.8848583725872514	0.2747561889720342	-0.8940655097882699	0.43155864661394755	-0.6608537063159611	-0.6206574360346288	-0.5034325816363695	-0.567469524213503	-0.4091644032656772	0.5323249114553222	0.18016150138166886	-0.9750709334372547	0.5864457609632623	-0.698760652015714	0.8173226137764147	0.77618848983407	-0.37214187893055334	0.7845216131352464	0.8357128562734846	-0.5161343113328177	-0.5463283817769704	0.5342904267809996	-0.3579932183308541	-0.9214482215372962	-0.6014136300984305	-0.949820855632238	0.19746111276529457	-0.06812295819746254	-0.6564347190437333	0.8213360135239717	-0.6580961523587695	-0.15099358067792876	0.6614281952921378	-0.6279298332926777	-0.9908866132516976	0.8009601275558604	0.4749400939980142	0.5526373182450117	-0.7079390707959842	0.8084313507948996	-0.6648522279530786	-0.5368821740376971	0.4776777556533125	0.30046050941757996	-0.3185658535953749	-0.45386820060974437	0.35671881830942964	0.2754892031882472	-0.1143534637105817	-0.9716538652690735	0.8474863134830689	-0.17092919072046106	-0.7919951345832089	0.4115666486866093	0.712535248775627	-0.029776829571402683	0.6482933372163457	-0.5857149106816647	-0.27059827028593114	0.5552164473486559	-0.5368876328304539	-0.7639771507973819	-0.8800829859732662	0.1784192229001261	-0.5600575386137056	0.9942784245159768	-0.5079227138611524	0.3690543982633028	-0.9755494511032395	0.30943055795303664	0.6243237033776567	0.010912922090904132	0.08654668658367178	-0.051752081929035076	-0.3784149254520364	-0.7496644538735802	0.8260165514399481	0.5757254216088133	0.6007269401533067	-0.09960013344682778	-0.1503404564142371	0.3461685926276824	0.3924063521623415	-0.9254413603477041	0.1605206487257549	-0.3532370027908577	-0.28240174947723423	-0.5143611017025017	-0.18582092302187053	0.8788528019649692	0.4906117631009151	-0.921276729869902	0.0715779517909163	-0.05965226994190217	-0.9190401288665192	-0.09451433052055372	0.8821799836763382	0.7105990469171297	-0.04848025628216519	0.09471809518716286	0.16968138674758299	-0.20834861014416867	0.9358484718925181	0.035147603953901436	0.5956846932877224	-0.6192365974202597	0.6068865900623002	-0.5757227060603166	-0.583925703694431	-0.7212025043180621	0.6095861798956712	0.5675619024003609	0.38025675880698534	-0.8531997275059564	-0.4541895267348384	0.8460411251064373	-0.7075934961529234	0.3697602280229937	-0.9903635340360603	-0.8790704555211057	-0.5454574511301078	-0.9174301053747149	0.7704918583562328	0.43135887509786264	-0.08028959333513046	0.22460101895831822	0.5981250674650419	0.6274112324652349	-0.10727838466423979	-0.29603141527041027	0.17055378110647249	-0.31502633872563723	0.6124758134509748	0.35988240003147254	0.6820523648133359	
-0.3576049176837202	0.4431679474581874	0.4692481727993129	0.048929145181816076	-0.334403875364016	0.9679703877886072	-0.6870613946129849	-0.6388819758246086	-0.5241850055438053	0.09141752577303834	-0.5057070710871977	0.4637547227603098	0.7066335211462761	-0.23346597151701146	0.7144340938000708	-0.48963524487430515	0.05262100607180317	0.13533512931642652	0.6712583273279128	-0.4646103782973036	0.2421158950016624	-0.5461333750249555	-0.6691626097967508	-0.8576001730884016	0.2641185746332184	-0.834389697317103	-0.31396914036568524	-0.7386567881776581	0.5210270011239637	0.8566177523222376	-0.18994257851488205	0.20138345704208474	-0.2858183055758048	0.11194454719557873	-0.3761096824592183	0.8611497819487494	-0.43946107063987117	-0.5138002248444108	-0.016579600523960437	-0.6805948386358075	0.7682299216574853	0.9877783320566257	0.3105484233815065	-0.3381977757465824	0.19147005492189684	-0.38460359946454137	0.3600770075690017	-0.18129826173422559	0.5210122735567267	-0.13341740238692218	-0.9338140354190037	0.5748202874255958	-0.42393696805724634	-0.19019405205856604	0.5180145261886472	0.8340753632419212	-0.9785419422567528	0.10527383496667155	0.48426486795632795	-0.6002198146054198	-0.971114731257409	-0.11404718935387041	-0.838093255364696	0.6705330833848799	-0.10124018040935788	-0.5572453914615072	-0.7260326770087763	-0.44180298427082904	-0.5131596375261425	-0.30527443881094507	-0.32030391735790326	0.6869712579451867	0.8824948823561634	0.6955339034926417	-0.8155820573393688	0.9036677932832193	-0.4570794732591176	0.5042906511516544	0.5140889475427665	-0.10337884952474341	-0.14379970466647998	-0.18843399713184397	0.9686496451511898	0.8496846589458733	0.17478680450682887	0.5306814571212429	-0.22625151702208404	-0.07456843175780213	0.07440324169786867	0.28332306854934824	-0.6361838959732486	-0.21936156386480804	0.4342781453343932	0.5625430008502849	0.04365192456533526	0.9033041595022209	-0.2879634507052921	-0.9927963878302984	-0.957563177062368	-0.03847314095073156	-0.9761395541625378	-0.0710365290515977	-0.210579183575136	-0.34072542994708754	0.404517686558425	-0.7905490464348974	0.5057056450264338	0.589643216178815	0.6995733521124783	-0.13370524982299223	0.5425108775289599	-0.6975935724420972	0.7398645768582525	0.6099126298289183	-0.9294528452720606	-0.4203593993749782	0.2780511874761445	-0.4110186759459466	0.9440370074974473	0.4542847689347969	0.4872260269565829	-0.6453363099320382	0.54439329268717	-0.5915167204131445	-0.6336959793310565	-0.768857049721232	0.2553871534140231	0.7868601401827944	0.33749963344200373	-0.6579354522604027	-0.03700449208762269	0.9777074014060594	0.03640318787120802	-0.43580022583065425	-0.9431812987503791	-0.28700983101457683	0.32890351068312623	0.037615263461770326	0.21810618880415653	-0.4467514501358528	-0.9579830880416987	0.07808200867059424	0.87128688376572	-0.29386193275693023	0.33616525720577173	-0.7194859731688301	-0.6306891219397612	-0.39474618758126706	0.7028677955581923	0.21646743376075447	-0.5925279999786229	0.6134080149977121	0.8451086529812205	-0.44627593701509477	0.9534303325397638	0.060671147911935376	0.5425999057056586	0.08567202628727796	0.22274650300903892	-0.8199836831939612	0.723640415151091	-0.8017644724581711	-0.9950862718768301	-0.575241515734115	0.10109000858327889	0.8616694410049167	0.46957386252161043	0.9721100792493781	0.8750800300276256	-0.13498164586737763	0.9591996705474509	-0.5969105767092621	-0.5602153794592035	-0.12082026722630226	0.5821259095450255	0.21418601360360504	-0.44793102124007833	0.49041677495616887	-0.9021663311100216	-0.5500766046293707	-0.18904556702494188	-0.15102892636878168	0.16364043125301309	-0.4622097815660293	-0.6831048084207855	0.611800240078514	0.9082194878414858	-0.10820844666945445	0.08685098180456055	-0.08471302697960598	-0.3052617326207591	0.3006486741070798	0.2716361855235017	0.11687277272809847	0.30228903632287535	-0.8570825848891394	0.5326832303244058	-0.6341346386728978	0.7696557257608134	0.358780219601411	
0.7972409777607051	0.8146584232212781	-0.0629839305274525	-0.5787434264287039	0.8645569176274122	0.3929473305688653	-0.5460808298363733	0.9273603796205324	-0.8655727146055179	0.34113331823640713	-0.9798022035898676	-0.2232309449558174	0.5391272813241924	-0.18108996486622014	0.5619241072094973	0.5356062098699852	0.22236436501379653	-0.7822869046426293	-0.9824799054558895	-0.3313195103327689	-0.45023414726626526	-0.6771471041312769	-0.9442776815377648	0.6848924548496143	0.09665411665705807	-0.591504808218682	0.41494343419946944	0.8427738582361547	1.0150424147857189	0.789983827001175	0.20707229995131105	0.06670349192730236	-0.8224252776456356	-0.9583216386761819	0.9341087342529467	-0.08401884133308875	-0.4565606307158	-0.353520882251281	0.33947406622787296	-0.8380915202114438	-0.07472904167089801	0.8114362638934202	0.2740412052610701	0.35900659399461216	0.26709363337031494	-0.42880240474199877	-0.5614429998163286	0.9696008403417214	-0.9924795062521125	0.9461783144220981	-0.5116904267889182	-0.7965911575332555	0.2754559180526504	0.5083044574079372	-0.9277648505242682	0.5810283966511179	0.5794347929171304	-0.16737572716926014	0.8510306632853836	0.2449762779798751	-0.007964794710064291	0.4027409895119381	-0.9914075269119191	0.6408222123662164	-0.23492183610037143	0.1725352524189395	-0.8253522637995966	0.046832661026367996	0.5745677613578318	-0.4085899772363335	0.48947998761881045	0.10424700553086817	-0.07697146021685967	0.43827814685348676	-0.3053716293052796	-0.4150891804692087	-0.9663498115530638	-0.8046777687393233	0.6608840798739998	0.4505904641517918	-0.1106424469147542	0.6534197733987697	0.29783733180298694	0.5953421018591684	0.17963021592050304	-0.4527004901333124	-0.8299135871999169	-0.10140732476273749	-0.3402085592647851	-0.4092393613142154	0.30194556454303506	0.8450136527637195	-0.7641678614068911	0.9195476982031461	0.31277136325706645	0.5114570903962045	-0.25863989721685005	0.6981629369969883	0.46993370533080536	0.19214544276759732	0.015171590064738415	-0.4080386632488165	0.7673951490082415	-0.034111386966268906	-0.33698708827607676	-0.2575283900829728	-0.3395509859062419	0.31840983317040983	0.2697407446978824	0.6260261357702912	-0.5721492193867543	-0.25975754631821124	-0.1350897123407427	-0.3443137112576244	-0.46029281186408966	-0.3250545232088534	-0.9425524583621067	-0.8947926624210877	0.2444248641238541	0.5868937242397386	-0.52968782672814	0.9406055959190943	-0.1197653084546033	-0.8598082946626687	0.880152848233647	0.8536168210192301	-0.4779070461647427	0.039547736785662195	-0.9282211017673095	0.4271581639307247	0.9543838154012447	0.7860417706062417	-0.45959087826548234	0.45782110322362457	-0.14771412160387767	-0.3109902562515082	0.1764838228356001	-1.0030470122684982	0.5449259508550669	0.6079881001850829	0.05547462673844504	-0.8646508457616237	0.8346234065456565	-0.09825608007321017	-0.7125980675192428	0.8431596371827867	0.44478080208981435	0.3406785604953776	0.7123210824906855	-0.24487163074952126	-0.1534476820792544	-0.4674804265515666	-0.48913614016794316	-0.7421364275222616	0.7172280546705289	0.3642349560686413	0.3202282997174835	-0.5560184195931059	0.20541668056087162	0.006458071491267615	0.26443005551957544	0.9167376196658934	-0.7080424459346463	-0.270888994614384	-0.48927245288209464	0.9244491530291017	0.6943269638919751	0.9341548822319068	-0.6447465536926931	0.5638203482265436	-0.9484611095070806	0.6222490565973793	0.8740934771427601	-0.22554843934161395	-0.9647722441206823	0.23159749953203448	0.9381158360221777	0.862531869772127	0.773804473472684	0.9612632469856378	-0.9056593216212405	-0.3608508606188225	0.09702229474647994	0.06277194484882727	0.3545143654921916	0.5920416371862407	0.026318088100507175	0.6503554094252064	-0.8685286359390051	0.02881088214002452	0.511414049137637	0.7491936629780445	0.7255934146610395	0.957340388016148	-0.6560417673197635	0.14861836175747856	0.6695101218911809	0.7217618734159	-0.4202344838582651	-0.9192362811789769	
